{"learner":{"attributes":{"scikit_learn":"{\"_estimator_type\": \"regressor\"}"},"feature_names":["lag_1","lag_2","lag_3","lag_12","Rolling3","Rolling6","Rolling12","Rolling3_Median","Volatility_6","trend_3","pct_change","month_num","month_sin","month_cos","log_total_budget","spend_ratio","category_ratio","Category_Entertainment","Category_Food & Drink","Category_Health & Fitness","Category_Personal Care","Category_Rent","Category_Travel","Category_Utilities","UserType_college_student","UserType_family_high","UserType_family_moderate","UserType_luxury_lifestyle","UserType_senior_retired","UserType_young_professional","budget_category_low","budget_category_moderate","budget_category_high","budget_category_very_high","budget_category_luxury"],"feature_types":["float","float","float","float","float","float","float","float","float","float","float","int","float","float","float","float","float","i","i","i","i","i","i","i","i","i","i","i","i","i","i","i","i","i","i"],"gradient_booster":{"model":{"gbtree_model_param":{"num_parallel_tree":"1","num_trees":"340"},"iteration_indptr":[0,1,2,3,4,5,6,7,8,9,10,11,12,13,14,15,16,17,18,19,20,21,22,23,24,25,26,27,28,29,30,31,32,33,34,35,36,37,38,39,40,41,42,43,44,45,46,47,48,49,50,51,52,53,54,55,56,57,58,59,60,61,62,63,64,65,66,67,68,69,70,71,72,73,74,75,76,77,78,79,80,81,82,83,84,85,86,87,88,89,90,91,92,93,94,95,96,97,98,99,100,101,102,103,104,105,106,107,108,109,110,111,112,113,114,115,116,117,118,119,120,121,122,123,124,125,126,127,128,129,130,131,132,133,134,135,136,137,138,139,140,141,142,143,144,145,146,147,148,149,150,151,152,153,154,155,156,157,158,159,160,161,162,163,164,165,166,167,168,169,170,171,172,173,174,175,176,177,178,179,180,181,182,183,184,185,186,187,188,189,190,191,192,193,194,195,196,197,198,199,200,201,202,203,204,205,206,207,208,209,210,211,212,213,214,215,216,217,218,219,220,221,222,223,224,225,226,227,228,229,230,231,232,233,234,235,236,237,238,239,240,241,242,243,244,245,246,247,248,249,250,251,252,253,254,255,256,257,258,259,260,261,262,263,264,265,266,267,268,269,270,271,272,273,274,275,276,277,278,279,280,281,282,283,284,285,286,287,288,289,290,291,292,293,294,295,296,297,298,299,300,301,302,303,304,305,306,307,308,309,310,311,312,313,314,315,316,317,318,319,320,321,322,323,324,325,326,327,328,329,330,331,332,333,334,335,336,337,338,339,340],"tree_info":[0,0,0,0,0,0,0,0,0,0,0,0,0,0,0,0,0,0,0,0,0,0,0,0,0,0,0,0,0,0,0,0,0,0,0,0,0,0,0,0,0,0,0,0,0,0,0,0,0,0,0,0,0,0,0,0,0,0,0,0,0,0,0,0,0,0,0,0,0,0,0,0,0,0,0,0,0,0,0,0,0,0,0,0,0,0,0,0,0,0,0,0,0,0,0,0,0,0,0,0,0,0,0,0,0,0,0,0,0,0,0,0,0,0,0,0,0,0,0,0,0,0,0,0,0,0,0,0,0,0,0,0,0,0,0,0,0,0,0,0,0,0,0,0,0,0,0,0,0,0,0,0,0,0,0,0,0,0,0,0,0,0,0,0,0,0,0,0,0,0,0,0,0,0,0,0,0,0,0,0,0,0,0,0,0,0,0,0,0,0,0,0,0,0,0,0,0,0,0,0,0,0,0,0,0,0,0,0,0,0,0,0,0,0,0,0,0,0,0,0,0,0,0,0,0,0,0,0,0,0,0,0,0,0,0,0,0,0,0,0,0,0,0,0,0,0,0,0,0,0,0,0,0,0,0,0,0,0,0,0,0,0,0,0,0,0,0,0,0,0,0,0,0,0,0,0,0,0,0,0,0,0,0,0,0,0,0,0,0,0,0,0,0,0,0,0,0,0,0,0,0,0,0,0,0,0,0,0,0,0,0,0,0,0,0,0,0,0,0,0,0,0,0,0,0,0,0,0,0,0,0,0,0,0,0,0,0,0,0,0],"trees":[{"base_weights":[-0E0,-5.510057E-1,6.8464845E-1,-9.533684E-1,-1.3420473E-1,4.2440218E-1,8.7100434E-1,-9.5829225E-1,-6.914796E-2,-3.8862693E-1,-6.174686E-2,1.794433E-1,5.1256615E-1,7.4885595E-1,9.356984E-1,-8.511422E-2,-5.0383832E-2,3.0568592E-2,-4.3652855E-2,-7.820107E-1,-2.9327548E-1,-3.4946233E-1,-1.345364E-2,2.3427783E-1,-6.078239E-2,-2.6489294E-1,5.45564E-1,7.900999E-1,3.6135644E-1,2.0945074E-1,9.445361E-1,1.3369024E-2,-3.0724632E-2,-8.4604967E-1,1.1096201E-2,-3.8732463E-1,5.99571E-2,-4.4600838E-1,2.8360188E-1,4.1990284E-2,-2.2331922E-1,-8.623549E-2,3.3949655E-1,1.2208287E-1,-6.1870176E-2,6.026748E-1,2.1065116E-1,7.9907316E-1,-1.4328189E-2,6.0678184E-1,-1.7649381E-1,5.408124E-2,-3.312345E-2,-0E0,9.482069E-1,-0E0,-8.00194E-2,8.377043E-3,-4.3117013E-2,2.7827745E-2,-5.8199562E-2,1.7130747E-2,-5.530158E-2,6.1668765E-2,-3.9477598E-2,1.347542E-2,-7.7076317E-3,-5.081747E-2,-2.34648E-3,3.3149663E-2,-3.0308787E-2,3.9538812E-2,-7.4869473E-3,-1.96064E-2,4.7683544E-2,6.360974E-2,3.5944935E-2,3.02846E-2,-5.8327693E-2,7.317287E-2,4.023824E-2,-0E0,7.389993E-2,3.0730707E-3,-4.5019303E-2,8.445429E-2,9.570132E-3],"categories":[],"categories_nodes":[],"categories_segments":[],"categories_sizes":[],"default_left":[0,0,0,0,0,0,0,0,0,0,0,0,0,0,0,0,0,0,0,0,0,0,0,0,0,0,0,0,0,0,0,0,0,0,0,0,0,0,0,0,0,0,0,0,0,0,0,0,0,0,0,0,0,0,0,0,0,0,0,0,0,0,0,0,0,0,0,0,0,0,0,0,0,0,0,0,0,0,0,0,0,0,0,0,0,0,0],"id":0,"left_children":[1,3,5,7,9,11,13,15,17,19,21,23,25,27,29,-1,31,-1,-1,33,35,37,39,41,-1,43,45,47,49,51,53,-1,-1,55,-1,57,59,61,63,65,67,69,71,73,-1,75,77,79,-1,81,83,-1,-1,-1,85,-1,-1,-1,-1,-1,-1,-1,-1,-1,-1,-1,-1,-1,-1,-1,-1,-1,-1,-1,-1,-1,-1,-1,-1,-1,-1,-1,-1,-1,-1,-1,-1],"loss_changes":[1.0418303E3,2.5574252E2,5.8142822E1,2.5812378E0,1.3573681E1,1.0574669E1,3.1812744E0,1.1605225E0,1.6768922E0,5.0365868E0,7.9758854E0,6.7677426E0,1.0176659E1,2.8531036E0,1.7822876E0,0E0,5.335762E-1,0E0,0E0,2.4036503E0,4.818742E0,5.425931E0,6.080864E0,4.8089695E0,0E0,3.212977E0,6.1936264E0,2.6529083E0,4.469665E0,2.6689038E0,1.6398315E0,0E0,0E0,1.3921452E0,0E0,5.626747E0,5.468801E0,8.924192E0,4.1545186E0,5.798758E0,7.130651E0,4.1868267E0,5.0411015E0,1.7605039E0,0E0,5.719551E0,6.8187523E0,5.930176E-1,0E0,2.7919846E0,1.0538251E0,0E0,0E0,0E0,1.1193237E0,0E0,0E0,0E0,0E0,0E0,0E0,0E0,0E0,0E0,0E0,0E0,0E0,0E0,0E0,0E0,0E0,0E0,0E0,0E0,0E0,0E0,0E0,0E0,0E0,0E0,0E0,0E0,0E0,0E0,0E0,0E0,0E0],"parents":[2147483647,0,0,1,1,2,2,3,3,4,4,5,5,6,6,7,7,8,8,9,9,10,10,11,11,12,12,13,13,14,14,16,16,19,19,20,20,21,21,22,22,23,23,25,25,26,26,27,27,28,28,29,29,30,30,33,33,35,35,36,36,37,37,38,38,39,39,40,40,41,41,42,42,43,43,45,45,46,46,47,47,49,49,50,50,54,54],"right_children":[2,4,6,8,10,12,14,16,18,20,22,24,26,28,30,-1,32,-1,-1,34,36,38,40,42,-1,44,46,48,50,52,54,-1,-1,56,-1,58,60,62,64,66,68,70,72,74,-1,76,78,80,-1,82,84,-1,-1,-1,86,-1,-1,-1,-1,-1,-1,-1,-1,-1,-1,-1,-1,-1,-1,-1,-1,-1,-1,-1,-1,-1,-1,-1,-1,-1,-1,-1,-1,-1,-1,-1,-1],"split_conditions":[7.1435323E0,6.325121E0,7.6475787E0,7.159331E0,6.272594E0,7.2958117E0,8.01906E0,6.481069E0,7E0,-1.3995522E-1,6.5537252E0,1E0,6.2771883E0,8.119243E0,6.854397E0,-1.269522E-1,5.6028566E0,4.0852312E-2,-1.2756266E-1,7.711262E0,7.275636E0,1E0,7.4127703E0,6.8444853E0,-6.469467E-2,7.486582E0,8.151676E0,9.270841E0,2.0673865E-4,6.78622E0,7.488143E0,2.9548915E-2,-9.1258794E-2,4.719381E-1,1.835325E-2,1.5027736E-1,7.678447E0,6.398994E0,7.870608E-1,6.991232E0,6.5561814E0,-2.8593801E-2,7.586356E0,7.356516E0,-2.0913273E-2,7.540611E0,1E0,1.2E1,-9.629134E-3,-1.35127E-1,8.042172E0,1.10751785E-1,-6.931858E-3,-3.6316365E-2,4.5112956E-1,-5.3021493E-3,-5.4634523E-2,1.6131077E-2,-3.8371094E-2,2.314309E-2,-1.8161815E-2,1.0187728E-2,-4.95048E-2,2.1685053E-2,-4.236956E-2,9.637158E-3,-9.892362E-3,-2.4330426E-2,-1.2532626E-2,7.218634E-2,-1.6198225E-2,4.004565E-2,-8.842237E-3,-3.446262E-2,7.610301E-2,5.4646388E-2,2.9910753E-2,2.5535414E-2,-9.073031E-3,8.379073E-2,5.2662823E-2,2.244585E-2,9.2645675E-2,3.795376E-3,-1.2118589E-2,1.3258946E-1,8.3926626E-2],"split_indices":[6,6,6,2,2,6,6,5,11,10,6,22,3,5,1,0,0,0,0,0,3,22,1,7,0,5,3,3,10,1,4,0,0,8,0,16,3,7,15,0,0,10,4,1,0,5,20,11,0,10,0,0,0,0,16,0,0,0,0,0,0,0,0,0,0,0,0,0,0,0,0,0,0,0,0,0,0,0,0,0,0,0,0,0,0,0,0],"split_type":[0,0,0,0,0,0,0,0,0,0,0,0,0,0,0,0,0,0,0,0,0,0,0,0,0,0,0,0,0,0,0,0,0,0,0,0,0,0,0,0,0,0,0,0,0,0,0,0,0,0,0,0,0,0,0,0,0,0,0,0,0,0,0,0,0,0,0,0,0,0,0,0,0,0,0,0,0,0,0,0,0,0,0,0,0,0,0],"sum_hessian":[2.758E3,1.5287671E3,1.2292329E3,7.7578815E2,7.52979E2,5.170421E2,7.1219073E2,7.7059045E2,5.197715E0,1.6302731E2,5.8995166E2,1.4036757E2,3.7667453E2,2.5852383E2,4.5366693E2,7.6743774E2,3.152666E0,2.0230684E0,3.1746464E0,2.7747225E1,1.3528009E2,8.11013E1,5.0885037E2,1.340458E2,6.3217626E0,1.3971382E1,3.6270316E2,2.3030598E2,2.8217846E1,6.923504E0,4.467434E2,1.1189337E0,2.0337324E0,2.6717737E1,1.0294886E0,1.0816061E2,2.7119478E1,7.1767136E1,9.3341675E0,4.0124994E2,1.0760043E2,3.16679E1,1.0237791E2,7.313384E0,6.657998E0,3.068654E2,5.5837757E1,2.2914766E2,1.1583242E0,2.0047443E1,8.170403E0,4.718281E0,2.205223E0,1.6433079E0,4.451001E2,1.822198E0,2.4895538E1,1.739543E1,9.076518E1,2.1499565E1,5.619913E0,1.4814581E1,5.6952557E1,6.593689E0,2.7404788E0,2.1900903E2,1.8224092E2,3.61642E1,7.143623E1,1.0075734E1,2.1592165E1,8.291795E1,1.9459957E1,3.6354733E0,3.6779108E0,1.8802286E2,1.18842545E2,5.0185856E1,5.651904E0,2.0816225E2,2.0985418E1,6.3451576E0,1.3702285E1,4.8355823E0,3.3348205E0,4.4123428E2,3.8658323E0],"tree_param":{"num_deleted":"0","num_feature":"35","num_nodes":"87","size_leaf_vector":"1"}},{"base_weights":[-4.3977057E-3,-6.221193E-1,5.4800624E-1,-8.271967E-2,-1.9070922E-1,2.7239966E-1,8.09094E-1,-3.2015297E-1,1.9136813E-2,9.2035316E-2,4.6085265E-1,6.797439E-1,8.8813055E-1,-3.9607444E-1,-1.0686137E-1,1.8079543E-1,-1.8314505E-1,1.24430686E-1,-6.684263E-1,5.678675E-1,1.7102556E-1,5.8003724E-1,8.2006663E-1,-0E0,8.9304954E-1,-4.2138487E-1,1.2945764E-1,1.20539695E-1,-2.8868747E-1,5.4727864E-1,-4.114434E-2,-6.1181617E-1,2.712821E-1,8.2793355E-2,7.8790885E-1,1.3272278E-2,-7.14792E-2,6.2828E-1,2.258343E-1,-2.4634758E-1,3.4238526E-1,6.175093E-1,-5.1188115E-2,-0E0,8.3447266E-1,-1.644258E-2,1.6140103E-2,3.7750293E-2,8.9761186E-1,-4.321447E-3,-4.176028E-2,-3.0568987E-2,5.6074444E-2,-7.29113E-3,4.7891706E-2,5.5196127E-3,-4.0504403E-2,-1.1125572E-4,7.0650145E-2,-3.4389485E-2,3.1578273E-2,-5.931483E-2,9.2833815E-3,-1.1815784E-2,5.462503E-2,1.6591452E-3,3.928331E-2,7.603323E-2,-0E0,-1.0648806E-3,5.8748435E-2,3.266733E-2,-5.2435465E-2,1.5427488E-2,-7.126893E-2,-0E0,4.6192016E-2,5.852921E-2,5.4419627E-3,-0E0,7.4955344E-2,3.0955544E-2,-1.5212154E-2,4.922095E-3,7.982262E-2],"categories":[],"categories_nodes":[],"categories_segments":[],"categories_sizes":[],"default_left":[0,0,0,0,0,0,0,0,0,0,0,0,0,0,0,0,0,0,0,0,0,0,0,0,0,0,0,0,0,0,0,0,0,0,0,0,0,0,0,0,0,0,0,0,0,0,0,0,0,0,0,0,0,0,0,0,0,0,0,0,0,0,0,0,0,0,0,0,0,0,0,0,0,0,0,0,0,0,0,0,0,0,0,0,0],"id":1,"left_children":[1,3,5,-1,7,9,11,13,15,17,19,21,23,25,27,29,31,33,35,37,39,41,43,45,47,49,51,53,55,57,59,61,63,65,67,-1,-1,69,71,73,75,77,-1,-1,79,-1,-1,81,83,-1,-1,-1,-1,-1,-1,-1,-1,-1,-1,-1,-1,-1,-1,-1,-1,-1,-1,-1,-1,-1,-1,-1,-1,-1,-1,-1,-1,-1,-1,-1,-1,-1,-1,-1,-1],"loss_changes":[9.424827E2,1.7441656E2,1.03737335E2,0E0,1.5166838E1,2.379414E1,5.431244E0,5.134941E0,6.927842E0,8.882633E0,1.0072472E1,2.2789917E0,1.9941711E0,3.6186218E0,4.100031E0,1.0094493E1,1.8545351E1,9.134979E0,2.3151073E0,4.3409195E0,7.224907E0,8.588676E0,1.391098E0,2.1468684E-1,1.0793457E0,4.0931015E0,3.420959E0,3.9595242E0,3.564519E0,6.889305E0,1.0654498E1,2.5365677E0,6.8315105E0,7.492034E0,1.1527758E0,0E0,0E0,5.162796E0,5.2177753E0,7.3747463E0,4.4955254E0,3.7183304E0,0E0,0E0,8.698807E-1,0E0,0E0,5.7097644E-1,6.5771484E-1,0E0,0E0,0E0,0E0,0E0,0E0,0E0,0E0,0E0,0E0,0E0,0E0,0E0,0E0,0E0,0E0,0E0,0E0,0E0,0E0,0E0,0E0,0E0,0E0,0E0,0E0,0E0,0E0,0E0,0E0,0E0,0E0,0E0,0E0,0E0,0E0],"parents":[2147483647,0,0,1,1,2,2,4,4,5,5,6,6,7,7,8,8,9,9,10,10,11,11,12,12,13,13,14,14,15,15,16,16,17,17,18,18,19,19,20,20,21,21,22,22,23,23,24,24,25,25,26,26,27,27,28,28,29,29,30,30,31,31,32,32,33,33,34,34,37,37,38,38,39,39,40,40,41,41,44,44,47,47,48,48],"right_children":[2,4,6,-1,8,10,12,14,16,18,20,22,24,26,28,30,32,34,36,38,40,42,44,46,48,50,52,54,56,58,60,62,64,66,68,-1,-1,70,72,74,76,78,-1,-1,80,-1,-1,82,84,-1,-1,-1,-1,-1,-1,-1,-1,-1,-1,-1,-1,-1,-1,-1,-1,-1,-1,-1,-1,-1,-1,-1,-1,-1,-1,-1,-1,-1,-1,-1,-1,-1,-1,-1,-1],"split_conditions":[6.955376E0,6.266892E0,7.6162186E0,-1.1631556E-1,6.9382067E0,7.2958117E0,8.068713E0,8.660254E-1,4.4727802E-2,8.8419026E-1,7.5783844E0,8.303136E0,1.9378419E-1,7.6154118E0,6.5152607E0,6.8410916E0,-8.9839794E-2,1.2362088E0,3.7546203E-1,8.151676E0,1.5549542E-1,8.2996E0,6.582759E0,8.02553E0,7.17914E0,6.066178E0,6.7499866E0,6.619765E0,4.9706915E-1,-1.3843261E0,7.224309E0,1E0,1.5534396E-1,1.3162614E-1,7.8443503E0,2.5264837E-2,-2.9234376E-2,6.2771883E0,1E0,7.53604E0,7.4077363E0,8.214825E0,-2.3774998E-3,-2.2024212E-2,1.2519956E-1,-2.88306E-2,8.4440455E-2,7.097797E0,6.610777E0,-6.0687754E-3,-3.2528423E-2,-1.6553307E-2,4.4345226E-2,-1.3583554E-2,5.2320454E-2,1.9764496E-2,-2.5521308E-2,-7.7470504E-3,1.6264232E-2,-2.7946487E-2,2.3028474E-2,-4.1944794E-2,3.0559935E-2,-1.0397239E-2,1.984786E-2,5.374365E-4,2.4993965E-2,4.024118E-2,-2.872101E-2,-1.3989397E-2,4.9806587E-2,2.385338E-2,-8.314218E-3,7.4717863E-3,-2.4168426E-2,-3.4166873E-3,3.9728533E-2,6.7667715E-2,4.7998704E-2,9.766783E-2,9.147739E-2,5.079704E-2,-2.9766068E-2,7.636975E-2,1.1253311E-1],"split_indices":[6,6,6,0,2,6,2,13,10,15,5,1,8,3,7,0,9,9,8,3,16,4,3,0,7,7,5,5,8,9,7,12,10,10,3,0,0,3,20,6,0,1,0,0,16,0,0,0,1,0,0,0,0,0,0,0,0,0,0,0,0,0,0,0,0,0,0,0,0,0,0,0,0,0,0,0,0,0,0,0,0,0,0,0,0],"split_type":[0,0,0,0,0,0,0,0,0,0,0,0,0,0,0,0,0,0,0,0,0,0,0,0,0,0,0,0,0,0,0,0,0,0,0,0,0,0,0,0,0,0,0,0,0,0,0,0,0,0,0,0,0,0,0,0,0,0,0,0,0,0,0,0,0,0,0,0,0,0,0,0,0,0,0,0,0,0,0,0,0,0,0,0,0],"sum_hessian":[2.758E3,1.3024707E3,1.4555293E3,7.5377716E2,5.486936E2,7.1122266E2,7.4430664E2,3.4067346E2,2.0802013E2,3.6666397E2,3.4455865E2,2.9248727E2,4.5181937E2,2.477458E2,9.2927635E1,1.1754363E2,9.0476494E1,3.5406137E2,1.2602612E1,2.486308E2,9.592786E1,1.795259E2,1.1296137E2,2.4844396E0,4.4933493E2,2.3792296E2,9.822851E0,3.996855E1,5.2959087E1,4.4387268E1,7.3156364E1,4.695963E1,4.3516865E1,3.3613058E2,1.7930794E1,1.1150163E0,1.1487596E1,2.0829858E2,4.033221E1,2.6556583E1,6.937128E1,1.753222E2,4.2036996E0,1.9349294E0,1.1102644E2,1.2488575E0,1.2355821E0,3.2451577E0,4.4608978E2,3.0226442E1,2.0769652E2,4.6967354E0,5.1261153E0,2.6944614E1,1.3023939E1,1.631458E1,3.6644505E1,1.3690534E1,3.0696735E1,3.9969204E1,3.318716E1,4.4415886E1,2.5437431E0,1.9708815E1,2.3808052E1,2.887186E2,4.741197E1,1.636322E1,1.5675735E0,9.901524E0,1.9839706E2,3.5916756E1,4.4154515E0,1.52321005E1,1.1324483E1,2.4047552E1,4.5323723E1,1.6120708E2,1.4115126E1,1.9273124E0,1.0909913E2,2.0496192E0,1.1955386E0,2.8501632E0,4.432396E2],"tree_param":{"num_deleted":"0","num_feature":"35","num_nodes":"85","size_leaf_vector":"1"}},{"base_weights":[-6.5360325E-3,-7.8485626E-1,3.7998536E-1,-9.062421E-1,-3.553323E-1,-1.4500112E-2,6.5332067E-1,-9.423484E-1,-6.9922835E-1,-0E0,-4.911795E-1,-6.6910945E-2,2.3361526E-1,4.980889E-1,8.419621E-1,-8.4189035E-2,-4.5862848E-1,-7.748218E-1,2.339542E-1,5.073599E-1,-2.4539453E-1,-5.5453455E-1,6.626223E-2,-1.9132529E-1,3.1338736E-2,2.9889742E-1,-5.321205E-1,-2.6489294E-1,5.181036E-1,-1.1141751E-2,8.4586513E-1,3.0266883E-2,-6.818981E-1,-7.953517E-1,1.623459E-2,5.65883E-2,-3.5036363E-2,-3.6253065E-2,7.15688E-2,-6.7489244E-2,-4.196022E-2,-3.5928932E-1,-8.0125E-1,-3.377787E-1,5.3349996E-1,-3.167115E-1,5.443747E-2,2.5634456E-1,-7.296905E-2,-3.6010805E-1,3.7125394E-1,-0E0,-6.042541E-2,1.2208287E-1,-6.1870176E-2,5.2969486E-1,-2.6794095E-2,8.370914E-2,8.529505E-1,-0E0,-6.8417415E-2,-7.168056E-2,-0E0,-4.662141E-2,3.779062E-2,1.5452956E-2,-6.35593E-2,-6.927079E-3,-5.0772216E-2,-7.7832885E-2,-7.29494E-3,-0E0,-5.157984E-2,5.7307065E-2,-0E0,1.791905E-2,-3.5562485E-2,-4.066501E-3,5.3510614E-2,4.3116737E-2,-0E0,-1.2177592E-2,2.449496E-2,-5.0273508E-2,8.5782185E-3,4.048067E-2,-1.3851087E-2,-1.96064E-2,4.7683544E-2,7.6821566E-2,4.4488635E-2,5.555105E-2,-5.9729047E-2,4.568753E-2,-3.2125372E-2,7.592862E-2,-0E0],"categories":[],"categories_nodes":[],"categories_segments":[],"categories_sizes":[],"default_left":[0,0,0,0,0,0,0,0,0,0,0,0,0,0,0,0,0,0,0,0,0,0,0,0,0,0,0,0,0,0,0,0,0,0,0,0,0,0,0,0,0,0,0,0,0,0,0,0,0,0,0,0,0,0,0,0,0,0,0,0,0,0,0,0,0,0,0,0,0,0,0,0,0,0,0,0,0,0,0,0,0,0,0,0,0,0,0,0,0,0,0,0,0,0,0,0,0],"id":2,"left_children":[1,3,5,7,9,11,13,15,17,19,21,23,25,27,29,-1,31,33,35,37,39,41,43,45,47,49,51,53,55,-1,57,-1,59,61,-1,-1,-1,63,-1,-1,65,67,69,71,73,75,77,79,81,83,85,-1,-1,87,-1,89,91,93,95,-1,-1,-1,-1,-1,-1,-1,-1,-1,-1,-1,-1,-1,-1,-1,-1,-1,-1,-1,-1,-1,-1,-1,-1,-1,-1,-1,-1,-1,-1,-1,-1,-1,-1,-1,-1,-1,-1],"loss_changes":[8.3113245E2,4.63584E1,1.9936404E2,2.9727783E0,9.77194E0,9.751206E0,3.0249847E1,6.142578E-1,8.889507E0,7.5851507E0,5.63826E0,7.7914724E0,6.6558704E0,9.670929E0,2.52182E0,0E0,3.3695917E0,2.8170547E0,3.0759E0,3.7706904E0,3.8373065E0,5.1656685E0,3.4634674E0,8.842391E0,8.359793E0,6.0774574E0,9.2674875E-1,3.212977E0,4.091797E0,0E0,1.873291E0,0E0,7.0679617E-1,1.2099304E0,0E0,0E0,0E0,2.3260512E0,0E0,0E0,5.453304E0,4.3049784E0,2.373272E0,1.0858136E0,5.543449E-1,8.549389E0,5.637741E0,6.8828673E0,5.356913E0,1.5673294E0,5.3930197E0,0E0,0E0,1.7605039E0,0E0,3.6181488E0,6.3385177E0,1.9048492E0,1.2655029E0,0E0,0E0,0E0,0E0,0E0,0E0,0E0,0E0,0E0,0E0,0E0,0E0,0E0,0E0,0E0,0E0,0E0,0E0,0E0,0E0,0E0,0E0,0E0,0E0,0E0,0E0,0E0,0E0,0E0,0E0,0E0,0E0,0E0,0E0,0E0,0E0,0E0,0E0],"parents":[2147483647,0,0,1,1,2,2,3,3,4,4,5,5,6,6,7,7,8,8,9,9,10,10,11,11,12,12,13,13,14,14,16,16,17,17,18,18,19,19,20,20,21,21,22,22,23,23,24,24,25,25,26,26,27,27,28,28,30,30,32,32,33,33,37,37,40,40,41,41,42,42,43,43,44,44,45,45,46,46,47,47,48,48,49,49,50,50,53,53,55,55,56,56,57,57,58,58],"right_children":[2,4,6,8,10,12,14,16,18,20,22,24,26,28,30,-1,32,34,36,38,40,42,44,46,48,50,52,54,56,-1,58,-1,60,62,-1,-1,-1,64,-1,-1,66,68,70,72,74,76,78,80,82,84,86,-1,-1,88,-1,90,92,94,96,-1,-1,-1,-1,-1,-1,-1,-1,-1,-1,-1,-1,-1,-1,-1,-1,-1,-1,-1,-1,-1,-1,-1,-1,-1,-1,-1,-1,-1,-1,-1,-1,-1,-1,-1,-1,-1,-1],"split_conditions":[6.5537252E0,6.158486E0,7.2958117E0,5.991372E0,5.9918647E0,7.547813E0,7.964257E0,6.7336164E0,1.6334999E-1,-3.9654535E-1,1E0,6.8551664E0,1E0,6.2771883E0,6.3064575E0,-1.1836345E-1,6.140804E-1,2.9537228E-1,5.7534614E0,6.2561793E0,1.4758226E-1,6.637009E0,6.5682545E0,6.955376E0,5E0,6.227498E-1,-5E-1,7.486582E0,7.9576507E0,-9.784166E-3,1.0308986E1,2.5050977E-2,5.0808454E0,8.9134645E-1,2.2937972E-3,3.7628792E-2,-4.523445E-2,1.3568722E-1,5.2777354E-2,-1.0120813E-1,2.2497167E-1,7E0,2.111121E-1,9.392745E0,7.737522E-1,6.6152987E0,1.2362088E0,6.9484844E0,3.164569E-1,7.8643775E0,8.4035677E-1,3.733769E-2,-1.02092795E-1,7.356516E0,-1.7822105E-2,-1.4349781E0,9E0,8.229967E0,2.0465915E0,-1.5802301E-1,-5.6102484E-2,-7.64078E-2,9.302643E-3,-1.8930256E-2,6.54485E-3,5.9240907E-3,-5.622753E-2,-2.4147395E-2,-3.285411E-2,-5.2123953E-2,-3.5674617E-2,1.384049E-3,-3.3894863E-2,1.8635988E-2,-7.24848E-2,9.646238E-3,-2.2485929E-2,-2.1121602E-3,3.6677193E-2,2.7699813E-2,-4.37686E-3,-8.045457E-3,2.0988952E-2,-2.6729042E-2,8.836561E-2,3.7782345E-2,-1.5252665E-2,-3.0171448E-2,7.0601866E-2,4.7388E-2,4.4016626E-2,7.180056E-2,-2.4022982E-2,1.0422092E-1,-1.938644E-2,1.0656983E-1,1.3484031E-1],"split_indices":[6,6,6,5,1,3,6,1,10,9,22,2,17,3,3,0,8,16,3,5,16,7,4,6,11,15,13,5,6,0,14,0,3,8,0,0,0,16,0,0,16,11,16,14,15,6,9,1,9,3,15,0,0,1,0,9,11,0,9,0,0,0,0,0,0,0,0,0,0,0,0,0,0,0,0,0,0,0,0,0,0,0,0,0,0,0,0,0,0,0,0,0,0,0,0,0,0],"split_type":[0,0,0,0,0,0,0,0,0,0,0,0,0,0,0,0,0,0,0,0,0,0,0,0,0,0,0,0,0,0,0,0,0,0,0,0,0,0,0,0,0,0,0,0,0,0,0,0,0,0,0,0,0,0,0,0,0,0,0,0,0,0,0,0,0,0,0,0,0,0,0,0,0,0,0,0,0,0,0,0,0,0,0,0,0,0,0,0,0,0,0,0,0,0,0,0,0],"sum_hessian":[2.758E3,9.150738E2,1.8429263E3,7.1058356E2,2.044902E2,7.540609E2,1.0888652E3,5.9650684E2,1.1407671E2,5.7886726E1,1.4660349E2,6.259106E2,1.2815038E2,6.030975E2,4.857678E2,5.8335095E2,1.31559305E1,1.0648422E2,7.5924916E0,1.7679543E1,4.0207184E1,1.3271208E2,1.3891403E1,2.7833243E2,3.4757812E2,1.1996007E2,8.190315E0,1.3971382E1,5.891261E2,1.0312296E0,4.8473657E2,2.0026116E0,1.1153319E1,1.0524451E2,1.2397171E0,5.2394996E0,2.3529923E0,6.1212187E0,1.1558325E1,8.947552E0,3.125963E1,7.822035E1,5.449173E1,6.980196E0,6.9112077E0,1.857086E2,9.262383E1,1.11202286E2,2.3637584E2,1.0208161E1,1.0975191E2,1.9732318E0,6.217084E0,7.313384E0,6.657998E0,5.780915E2,1.1034603E1,5.5489664E0,4.791876E2,1.704679E0,9.44864E0,1.0341643E2,1.828074E0,3.5359087E0,2.5853102E0,2.4021545E1,7.238085E0,3.6279434E1,4.1940914E1,4.7970184E1,6.5215454E0,2.7115343E0,4.2686615E0,5.4043527E0,1.5068552E0,2.4620783E1,1.6108781E2,7.880849E1,1.3815343E1,5.847791E1,5.2724373E1,2.0211818E2,3.425767E1,7.6898804E0,2.5182807E0,9.569478E1,1.4057127E1,3.6354733E0,3.6779108E0,3.7096844E1,5.409947E2,5.0142546E0,6.020348E0,3.4168663E0,2.1321E0,4.760234E2,3.1642003E0],"tree_param":{"num_deleted":"0","num_feature":"35","num_nodes":"97","size_leaf_vector":"1"}},{"base_weights":[-6.110859E-3,-8.130693E-1,3.284709E-1,-8.7204325E-1,-4.162269E-1,-1.9941086E-2,6.041247E-1,-8.553726E-2,-7.553817E-1,-1.1306988E-1,-6.551844E-1,-6.324979E-2,2.1389593E-1,4.3366352E-1,8.118541E-1,-4.5098856E-1,-7.996775E-1,-4.5000523E-1,1.7776638E-1,-7.340595E-1,1.23581424E-1,-8.323608E-2,4.161309E-1,-5.671303E-2,2.639905E-1,-2.6489294E-1,4.5215538E-1,7.3365766E-1,9.676867E-1,-6.1130154E-1,4.5972133E-1,-0E0,-8.0534804E-1,-7.545503E-2,2.6425722E-1,6.504607E-2,-7.2371885E-2,9.910979E-2,-8.007876E-1,-2.4737671E-3,3.336603E-2,-5.2659065E-2,-3.3453184E-1,5.7010037E-1,-2.2591665E-1,-3.6010805E-1,3.2976723E-1,1.2208287E-1,-6.1870176E-2,4.657814E-1,-1.739618E-1,4.8278123E-2,7.500373E-1,3.029269E-1,8.7025724E-2,-2.7925834E-2,-7.712737E-2,-0E0,5.073713E-2,-1.9429963E-2,-7.250119E-2,5.2777313E-2,-7.5219697E-3,-4.8809674E-2,3.1643633E-2,-1.0319377E-2,3.2560464E-2,-7.693299E-2,-0E0,3.322158E-4,-1.9033603E-2,-5.3882334E-2,-3.4075242E-3,5.935657E-2,-2.1756548E-3,1.1340407E-2,-4.261552E-2,-5.0273508E-2,8.5782185E-3,3.7451126E-2,-1.9413128E-2,-1.96064E-2,4.7683544E-2,3.4636002E-2,5.3570148E-2,-5.9845403E-2,3.1775054E-2,4.6947032E-2,-2.1221543E-2,6.731226E-2,-0E0,5.0020132E-2,-1.5207044E-2],"categories":[],"categories_nodes":[],"categories_segments":[],"categories_sizes":[],"default_left":[0,0,0,0,0,0,0,0,0,0,0,0,0,0,0,0,0,0,0,0,0,0,0,0,0,0,0,0,0,0,0,0,0,0,0,0,0,0,0,0,0,0,0,0,0,0,0,0,0,0,0,0,0,0,0,0,0,0,0,0,0,0,0,0,0,0,0,0,0,0,0,0,0,0,0,0,0,0,0,0,0,0,0,0,0,0,0,0,0,0,0,0,0],"id":3,"left_children":[1,3,5,7,9,11,13,-1,15,17,19,21,23,25,27,29,31,33,35,37,39,41,43,-1,45,47,49,51,53,55,57,-1,59,-1,61,-1,63,65,67,-1,-1,69,71,73,75,77,79,81,-1,83,85,87,89,91,-1,-1,-1,-1,-1,-1,-1,-1,-1,-1,-1,-1,-1,-1,-1,-1,-1,-1,-1,-1,-1,-1,-1,-1,-1,-1,-1,-1,-1,-1,-1,-1,-1,-1,-1,-1,-1,-1,-1],"loss_changes":[7.4599786E2,1.7408997E1,1.8786118E2,5.1377563E0,7.3154488E0,8.665975E0,3.712497E1,0E0,2.8597412E0,5.4302397E0,4.254366E0,6.8604355E0,5.7660227E0,8.169991E0,3.4520874E0,7.5884447E0,1.2783508E0,8.197598E0,4.472121E0,3.6956425E0,4.951425E-1,5.132583E0,3.272664E0,0E0,5.449128E0,3.212977E0,5.391197E0,3.1710663E0,1.0769653E-1,1.9076042E0,3.8105118E-1,0E0,1.1248169E0,0E0,1.6079156E0,0E0,4.7101784E0,5.430208E-1,3.147686E0,0E0,0E0,5.940384E0,5.515726E0,1.897541E0,8.9616036E-1,1.5673294E0,6.3147345E0,1.7605039E0,0E0,4.9138947E0,4.14206E0,1.9390664E0,2.7823029E0,1.3338284E0,0E0,0E0,0E0,0E0,0E0,0E0,0E0,0E0,0E0,0E0,0E0,0E0,0E0,0E0,0E0,0E0,0E0,0E0,0E0,0E0,0E0,0E0,0E0,0E0,0E0,0E0,0E0,0E0,0E0,0E0,0E0,0E0,0E0,0E0,0E0,0E0,0E0,0E0,0E0],"parents":[2147483647,0,0,1,1,2,2,3,3,4,4,5,5,6,6,8,8,9,9,10,10,11,11,12,12,13,13,14,14,15,15,16,16,17,17,18,18,19,19,20,20,21,21,22,22,24,24,25,25,26,26,27,27,28,28,29,29,30,30,32,32,34,34,36,36,37,37,38,38,41,41,42,42,43,43,44,44,45,45,46,46,47,47,49,49,50,50,51,51,52,52,53,53],"right_children":[2,4,6,8,10,12,14,-1,16,18,20,22,24,26,28,30,32,34,36,38,40,42,44,-1,46,48,50,52,54,56,58,-1,60,-1,62,-1,64,66,68,-1,-1,70,72,74,76,78,80,82,-1,84,86,88,90,92,-1,-1,-1,-1,-1,-1,-1,-1,-1,-1,-1,-1,-1,-1,-1,-1,-1,-1,-1,-1,-1,-1,-1,-1,-1,-1,-1,-1,-1,-1,-1,-1,-1,-1,-1,-1,-1,-1,-1],"split_conditions":[6.3887916E0,6.1245546E0,7.2958117E0,5.659595E0,6.272971E0,7.547813E0,7.964257E0,-1.2924318E-1,5.0808454E0,4.733908E-2,1E0,1.1002116E1,6.4658914E0,6.2771883E0,8.687113E0,1.6334999E-1,2.8660753E-1,1E0,7.370066E-1,1.19759984E-1,6.1964235E0,2.484289E-1,7.3879037E0,-4.0596515E-2,6.227498E-1,7.486582E0,7.9576507E0,3.4597135E-1,1.1002116E1,-1.8369701E-16,5.8786316E0,2.4539977E-2,-1.6887299E0,-1.11375295E-1,1.9813202E-1,3.0273562E-2,7.9274213E-1,5.4526253E0,8.670887E-1,-1.1416958E-2,9.867108E-3,7.273266E0,6.8197656E0,1.2E1,7.400718E0,7.8643775E0,8.4035677E-1,7.356516E0,-1.6243666E-2,7.665894E0,8.040608E0,3.201604E-1,8.960194E0,9.196717E0,1.5026177E-1,-3.8590144E-2,-9.176642E-2,1.980829E-2,2.0578506E-3,-4.7677875E-2,-7.454231E-2,8.512874E-3,-1.8891023E-2,-4.904313E-2,2.0906643E-3,-3.7229914E-2,6.209786E-3,-6.1905246E-2,4.275547E-3,4.2007552E-4,-1.6769277E-2,-4.3722525E-2,-1.2408423E-3,5.3064823E-2,-8.575039E-3,3.040541E-2,-3.113559E-2,-2.4361761E-2,8.053946E-2,3.4030847E-2,-1.3901809E-2,-2.74993E-2,6.4348966E-2,3.2908253E-2,5.820776E-2,-1.2358717E-2,6.544149E-2,9.006538E-2,-1.4253259E-2,7.957941E-2,-5.8413595E-3,6.816271E-2,-1.1769969E-2],"split_indices":[6,6,6,6,7,3,6,0,3,10,22,14,5,3,5,10,8,29,15,16,3,16,5,0,15,5,6,8,14,13,5,0,9,0,16,0,15,0,9,0,0,1,4,11,1,3,15,1,0,6,7,8,4,0,0,0,0,0,0,0,0,0,0,0,0,0,0,0,0,0,0,0,0,0,0,0,0,0,0,0,0,0,0,0,0,0,0,0,0,0,0,0,0],"split_type":[0,0,0,0,0,0,0,0,0,0,0,0,0,0,0,0,0,0,0,0,0,0,0,0,0,0,0,0,0,0,0,0,0,0,0,0,0,0,0,0,0,0,0,0,0,0,0,0,0,0,0,0,0,0,0,0,0,0,0,0,0,0,0,0,0,0,0,0,0,0,0,0,0,0,0,0,0,0,0,0,0,0,0,0,0,0,0,0,0,0,0,0,0],"sum_hessian":[2.758E3,8.08129E2,1.949871E3,7.001155E2,1.080136E2,8.610057E2,1.0888652E3,3.7723254E2,3.228829E2,5.0079327E1,5.7934277E1,7.300236E2,1.3098204E2,6.030975E2,4.857678E2,4.564777E1,2.7723514E2,2.3760937E1,2.631839E1,5.3474865E1,4.4594126E0,7.036557E2,2.6367899E1,5.2675734E0,1.2571447E2,1.3971382E1,5.891261E2,3.3360696E2,1.5216083E2,3.9969643E1,5.6781282E0,1.9464636E0,2.752887E2,1.5556475E1,8.204461E0,7.817628E0,1.8500761E1,3.163765E0,5.03111E1,2.2360175E0,2.223395E0,6.3174243E2,7.191328E1,2.226964E1,4.098259E0,1.0208161E1,1.1550631E2,7.313384E0,6.657998E0,5.780915E2,1.1034603E1,8.903155E0,3.247038E2,5.213166E0,1.4694766E2,2.1856583E1,1.8113058E1,1.5475516E0,4.1305766E0,7.9436345E0,2.6734506E2,4.476061E0,3.7284005E0,9.217736E0,9.283025E0,1.0001088E0,2.1636562E0,4.6638412E1,3.6726875E0,4.6715167E2,1.6459074E2,3.5143852E1,3.6769424E1,1.9799456E1,2.470185E0,1.0388466E0,3.0594125E0,7.6898804E0,2.5182807E0,1.0016333E2,1.5342981E1,3.6354733E0,3.6779108E0,3.839542E2,1.9413733E2,6.052557E0,4.9820457E0,3.5786724E0,5.324483E0,3.2099042E2,3.7133842E0,4.0178456E0,1.195321E0],"tree_param":{"num_deleted":"0","num_feature":"35","num_nodes":"93","size_leaf_vector":"1"}},{"base_weights":[-1.9610003E-3,-6.7317635E-1,3.3809045E-1,-8.041251E-1,-2.3774911E-1,1.1106424E-1,6.838992E-1,-9.660581E-1,-6.9969195E-1,-2.8411633E-1,5.943007E-1,1.9756067E-3,3.2913777E-1,5.9441686E-1,9.14538E-1,-8.672993E-2,-1.1500797E-1,-7.0390546E-1,1.276299E-2,-5.5637145E-1,-1.3592234E-1,6.65209E-2,-1.0919187E-2,-4.2619046E-2,2.1880752E-1,4.5893776E-1,1.9073017E-2,6.5245736E-1,3.348878E-1,-1.6169969E-2,9.266383E-1,-4.494176E-2,2.7906936E-2,1.0637736E-2,-7.0782006E-1,-8.493454E-2,-7.25388E-1,4.92232E-3,-6.5847725E-1,2.8725082E-1,-7.313809E-2,-3.1973392E-1,2.8735727E-1,4.9221456E-1,-1.142954E-1,2.1369818E-1,-4.5225707E-1,6.721106E-1,-4.30336E-2,5.41232E-1,2.614926E-2,-1.5809964E-2,8.3139755E-2,-3.6067154E-2,-6.4790964E-2,2.4550848E-2,-4.9050268E-2,-0E0,-7.291636E-2,2.6021792E-2,-2.0844288E-2,-7.2542705E-2,-0E0,3.974867E-2,-1.1254154E-2,3.164023E-2,-8.952317E-3,-5.2876174E-2,2.0143E-2,3.6810476E-2,-1.1280903E-2,-2.127801E-2,4.5214556E-2,-3.7091255E-2,4.3336608E-2,-2.4194766E-2,3.5052694E-2,-6.580862E-2,5.7305213E-2,1.0095579E-2,6.123796E-2,-3.8733337E-2,4.6168994E-2,6.103596E-2,-3.57516E-3,5.0679207E-2,-1.0728509E-2],"categories":[],"categories_nodes":[],"categories_segments":[],"categories_sizes":[],"default_left":[0,0,0,0,0,0,0,0,0,0,0,0,0,0,0,0,0,0,0,0,0,0,0,0,0,0,0,0,0,0,0,0,0,0,0,0,0,0,0,0,0,0,0,0,0,0,0,0,0,0,0,0,0,0,0,0,0,0,0,0,0,0,0,0,0,0,0,0,0,0,0,0,0,0,0,0,0,0,0,0,0,0,0,0,0,0,0],"id":4,"left_children":[1,3,5,7,9,11,13,15,17,19,21,23,25,27,29,-1,31,33,-1,35,37,-1,-1,39,41,43,45,47,49,-1,51,-1,-1,-1,53,55,57,59,61,63,65,67,69,71,73,75,77,79,81,83,85,-1,-1,-1,-1,-1,-1,-1,-1,-1,-1,-1,-1,-1,-1,-1,-1,-1,-1,-1,-1,-1,-1,-1,-1,-1,-1,-1,-1,-1,-1,-1,-1,-1,-1,-1,-1],"loss_changes":[6.306077E2,5.1935577E1,1.4319511E2,9.647705E0,8.561819E0,2.6179607E1,1.2914093E1,2.1187592E0,2.1381989E0,7.841856E0,1.8773952E0,7.324676E0,1.4478558E1,6.907242E0,3.4310913E0,0E0,1.6344852E0,1.9754791E0,0E0,5.050411E0,1.0713985E1,0E0,0E0,6.099763E0,4.943553E0,5.2755013E0,1.031277E1,6.331314E0,6.151375E0,0E0,3.4407501E0,0E0,0E0,0E0,1.8183136E0,4.2316747E0,3.9337711E0,7.870937E0,2.9072886E0,3.716875E0,6.721027E0,2.701266E0,6.5238743E0,3.7014427E0,3.0372317E0,7.5270762E0,1.1345634E1,3.8277435E0,3.2054548E0,5.666691E0,4.010806E0,0E0,0E0,0E0,0E0,0E0,0E0,0E0,0E0,0E0,0E0,0E0,0E0,0E0,0E0,0E0,0E0,0E0,0E0,0E0,0E0,0E0,0E0,0E0,0E0,0E0,0E0,0E0,0E0,0E0,0E0,0E0,0E0,0E0,0E0,0E0,0E0],"parents":[2147483647,0,0,1,1,2,2,3,3,4,4,5,5,6,6,7,7,8,8,9,9,10,10,11,11,12,12,13,13,14,14,16,16,17,17,19,19,20,20,23,23,24,24,25,25,26,26,27,27,28,28,30,30,34,34,35,35,36,36,37,37,38,38,39,39,40,40,41,41,42,42,43,43,44,44,45,45,46,46,47,47,48,48,49,49,50,50],"right_children":[2,4,6,8,10,12,14,16,18,20,22,24,26,28,30,-1,32,34,-1,36,38,-1,-1,40,42,44,46,48,50,-1,52,-1,-1,-1,54,56,58,60,62,64,66,68,70,72,74,76,78,80,82,84,86,-1,-1,-1,-1,-1,-1,-1,-1,-1,-1,-1,-1,-1,-1,-1,-1,-1,-1,-1,-1,-1,-1,-1,-1,-1,-1,-1,-1,-1,-1,-1,-1,-1,-1,-1,-1],"split_conditions":[6.5602617E0,6.158486E0,7.6327534E0,5.4036484E0,1.8141972E0,7.2958117E0,8.406749E0,5.5902877E0,8.797048E-1,6.0485535E0,9.9421144E-1,7.5262165E0,7.5783844E0,1E0,7.0376425E0,-1.3533919E-1,6.241406E0,4.3423758E0,1.8755799E-3,6.0370593E0,2.1339054E-1,8.446698E-3,-6.5265596E-2,6.3812404E0,6.2647474E-1,8.41904E0,4.081165E-2,3.185872E-1,7.9607425E0,-2.9982293E-2,1.2785602E-1,-1.8079418E-1,1.00748865E-2,3.1430703E-3,-8.660254E-1,9.392745E0,3E0,6.340245E-1,6.705186E0,8.030977E-1,-1.5011212E0,7.32834E0,6.233439E-1,5.99446E-1,1E0,6.844805E0,1.4961606E-1,7.17914E0,5E0,8.439999E0,7.659652E0,-1.5109923E-2,1.2713097E-1,-6.0040813E-2,-6.400385E-2,3.395065E-3,-5.60929E-2,3.8969005E-3,-5.343549E-2,7.5915544E-3,-2.3335919E-2,-4.6068773E-2,-3.6646195E-2,1.0249302E-2,-1.0970319E-2,2.5174081E-2,-7.572466E-3,-2.220416E-2,2.7712526E-2,3.1016877E-2,-6.164134E-3,-1.4689382E-2,3.6084812E-2,-1.3193082E-2,3.5433773E-2,-5.6862016E-3,3.4074515E-2,-2.5835004E-2,1.1176787E-1,7.1173385E-3,6.938826E-2,-1.5737819E-2,6.694543E-2,4.3476824E-2,-1.9227903E-2,3.729491E-2,-5.923415E-3],"split_indices":[5,6,6,6,9,6,6,5,15,2,8,3,5,32,2,0,1,2,0,1,16,0,0,7,15,3,10,16,1,0,16,0,0,0,13,14,11,8,7,15,9,5,9,15,12,3,10,7,11,0,7,0,0,0,0,0,0,0,0,0,0,0,0,0,0,0,0,0,0,0,0,0,0,0,0,0,0,0,0,0,0,0,0,0,0,0,0],"split_type":[0,0,0,0,0,0,0,0,0,0,0,0,0,0,0,0,0,0,0,0,0,0,0,0,0,0,0,0,0,0,0,0,0,0,0,0,0,0,0,0,0,0,0,0,0,0,0,0,0,0,0,0,0,0,0,0,0,0,0,0,0,0,0,0,0,0,0,0,0,0,0,0,0,0,0,0,0,0,0,0,0,0,0,0,0,0,0],"sum_hessian":[2.758E3,9.274286E2,1.8305714E3,7.1058356E2,2.1684505E2,1.1077676E3,7.2280383E2,2.698802E2,4.4070337E2,2.0735255E2,9.492492E0,7.417061E2,3.660615E2,5.277925E2,1.9501132E2,2.647051E2,5.1750817E0,4.3960883E2,1.0945593E0,6.964451E1,1.3770805E2,8.469749E0,1.0227422E0,6.139507E2,1.2775539E2,2.5588945E2,1.10172035E2,4.2686865E2,1.0092383E2,1.2368879E0,1.9377443E2,3.3254623E0,1.8496192E0,1.0120784E0,4.3859674E2,2.0173014E1,4.947149E1,1.0898444E2,2.8723612E1,4.878901E1,5.651617E2,1.2542003E1,1.1521339E2,2.431937E2,1.2695756E1,7.9710014E1,3.0462025E1,4.161219E2,1.074679E1,5.834342E1,4.2580414E1,1.2212187E0,1.925532E2,3.6698692E1,4.0189804E2,1.1034712E1,9.138303E0,5.695756E0,4.3775734E1,5.0535583E1,5.8448856E1,2.2214472E1,6.50914E0,3.613025E1,1.265876E1,3.1632318E1,5.3352936E2,9.005985E0,3.5360174E0,8.920675E1,2.6006638E1,4.481828E0,2.3871185E2,9.556801E0,3.1389554E0,2.044853E1,5.926148E1,2.5058107E1,5.4039173E0,1.5516648E1,4.0060522E2,7.2692056E0,3.4775844E0,4.7131336E1,1.1212078E1,8.812405E0,3.376801E1],"tree_param":{"num_deleted":"0","num_feature":"35","num_nodes":"87","size_leaf_vector":"1"}},{"base_weights":[-0E0,-6.2989736E-1,3.1360984E-1,-7.495354E-1,-2.1362966E-1,9.9213645E-2,6.4338875E-1,-9.648425E-1,-6.435833E-1,4.8008186E-1,-2.492543E-1,3.4933062E-3,2.9318693E-1,5.3543466E-1,8.5336566E-1,-8.616919E-2,-0E0,2.6030874E-2,-6.494931E-1,6.2114507E-2,-1.748883E-2,-4.6404752E-1,-1.07437424E-1,-4.0941697E-2,2.2330153E-1,4.0737277E-1,1.9651536E-2,5.543236E-1,-1.3243814E-1,-1.11776724E-1,8.815579E-1,1.1023742E-1,-6.560541E-1,-5.760445E-1,4.9297118E-1,-0E0,-4.6004486E-1,9.887957E-3,-2.0850188E-1,3.1998888E-1,-1.2737338E-1,4.5024595E-1,-1.6040948E-1,2.3168904E-1,-4.9559876E-1,6.1826944E-1,2.9342797E-1,4.9090657E-2,-5.678701E-1,-4.8176505E-2,3.314095E-2,-1.5809964E-2,8.913948E-1,-0E0,1.6536279E-2,-6.1088555E-2,-3.9391704E-2,-6.359176E-2,-1.3594485E-4,-0E0,5.55769E-2,1.8243896E-2,-1.6420709E-2,1.3522928E-2,-5.8275484E-2,8.784129E-3,-9.124502E-3,-2.8428411E-2,8.455154E-3,9.683818E-3,5.5353474E-2,5.3563915E-2,-3.1064939E-2,-4.459947E-2,4.1648746E-2,-3.5282902E-2,4.3336608E-2,3.6538936E-2,-2.0300867E-2,-6.580862E-2,4.035084E-2,2.282597E-2,5.7399713E-2,4.3771148E-2,-0E0,-6.043743E-2,-0E0,8.0588326E-2,2.763651E-2],"categories":[],"categories_nodes":[],"categories_segments":[],"categories_sizes":[],"default_left":[0,0,0,0,0,0,0,0,0,0,0,0,0,0,0,0,0,0,0,0,0,0,0,0,0,0,0,0,0,0,0,0,0,0,0,0,0,0,0,0,0,0,0,0,0,0,0,0,0,0,0,0,0,0,0,0,0,0,0,0,0,0,0,0,0,0,0,0,0,0,0,0,0,0,0,0,0,0,0,0,0,0,0,0,0,0,0,0,0],"id":5,"left_children":[1,3,5,7,9,11,13,15,17,19,21,23,25,27,29,-1,-1,-1,31,-1,-1,33,35,37,39,41,43,45,47,49,51,53,55,57,59,61,63,65,67,69,71,73,75,77,79,81,83,-1,85,-1,-1,-1,87,-1,-1,-1,-1,-1,-1,-1,-1,-1,-1,-1,-1,-1,-1,-1,-1,-1,-1,-1,-1,-1,-1,-1,-1,-1,-1,-1,-1,-1,-1,-1,-1,-1,-1,-1,-1],"loss_changes":[5.456986E2,4.4793823E1,1.2972687E2,1.3970062E1,5.242814E0,2.0610147E1,1.4631592E1,1.6865387E0,3.2875519E0,2.092721E0,5.64767E0,7.508092E0,1.1197054E1,6.549408E0,7.2482452E0,0E0,0E0,0E0,2.9059906E0,0E0,0E0,8.906649E0,4.58936E0,5.473672E0,4.6026206E0,6.6062965E0,1.229514E1,6.9549713E0,4.791586E0,2.1602566E0,3.2252502E0,5.1084366E-2,2.0774078E0,5.303896E0,6.611216E-1,3.8393679E0,3.9862185E0,4.8545213E0,5.3023176E0,6.045738E0,4.811145E0,5.0411873E0,3.1682303E0,7.1092873E0,8.466906E0,3.13414E0,5.569888E0,0E0,5.4321265E-1,0E0,0E0,0E0,1.1551819E0,0E0,0E0,0E0,0E0,0E0,0E0,0E0,0E0,0E0,0E0,0E0,0E0,0E0,0E0,0E0,0E0,0E0,0E0,0E0,0E0,0E0,0E0,0E0,0E0,0E0,0E0,0E0,0E0,0E0,0E0,0E0,0E0,0E0,0E0,0E0,0E0],"parents":[2147483647,0,0,1,1,2,2,3,3,4,4,5,5,6,6,7,7,8,8,9,9,10,10,11,11,12,12,13,13,14,14,18,18,21,21,22,22,23,23,24,24,25,25,26,26,27,27,28,28,29,29,30,30,31,31,32,32,33,33,34,34,35,35,36,36,37,37,38,38,39,39,40,40,41,41,42,42,43,43,44,44,45,45,46,46,48,48,52,52],"right_children":[2,4,6,8,10,12,14,16,18,20,22,24,26,28,30,-1,-1,-1,32,-1,-1,34,36,38,40,42,44,46,48,50,52,54,56,58,60,62,64,66,68,70,72,74,76,78,80,82,84,-1,86,-1,-1,-1,88,-1,-1,-1,-1,-1,-1,-1,-1,-1,-1,-1,-1,-1,-1,-1,-1,-1,-1,-1,-1,-1,-1,-1,-1,-1,-1,-1,-1,-1,-1,-1,-1,-1,-1,-1,-1],"split_conditions":[6.5397935E0,6.158486E0,7.6327534E0,5.2805724E0,5.991372E0,7.2958117E0,8.333431E0,6.0328465E0,4.3423758E0,6.466813E0,6.113085E0,7.5262165E0,7.5783844E0,3.185872E-1,7.2123017E0,-1.2958919E-1,-9.807604E-2,1.0421732E-2,5.1583924E0,7.6861107E-3,-4.094864E-2,2.7241054E-1,2.115838E-1,1E0,6.233439E-1,8.396002E0,4.081165E-2,1E0,7.7087116E0,8.467695E0,1.2785602E-1,5.394854E0,1.6334999E-1,7.062286E0,7.108683E-1,6.340245E-1,6.3734903E0,7.1141105E0,7.1318984E0,-1.9372472E-1,6.9642158E0,-1.9254417E0,1E0,1E0,1.4961606E-1,7.0376425E0,7.9607425E0,2.1290611E-2,8.303136E0,-2.772224E-2,1.8862264E-2,-1.3771694E-2,3.3777887E-1,-2.9815648E-2,4.6404723E-2,-6.4541705E-2,-3.9855737E-2,-4.8887044E-2,-2.01344E-2,-4.428112E-2,1.4072847E-2,6.891063E-3,-2.7914815E-2,3.2908379E-3,-4.9137305E-2,2.9042095E-3,-5.290705E-3,-1.6737899E-2,1.3197517E-2,5.45186E-3,3.507544E-2,6.002768E-2,-1.3353731E-2,-8.979658E-4,3.36579E-2,-1.2024624E-2,3.229556E-2,3.2501604E-2,-6.6921106E-3,-2.3546906E-2,1.0186909E-1,4.3797825E-2,6.324284E-2,3.9626252E-2,7.4371565E-3,-1.0212603E-2,-1.5555548E-2,1.1091172E-1,1.600548E-2],"split_indices":[5,6,6,6,5,6,6,3,1,1,2,3,5,16,2,0,0,0,5,0,0,10,16,22,9,3,10,32,7,6,16,1,10,0,15,8,2,1,7,9,6,9,12,19,10,3,1,0,7,0,0,0,16,0,0,0,0,0,0,0,0,0,0,0,0,0,0,0,0,0,0,0,0,0,0,0,0,0,0,0,0,0,0,0,0,0,0,0,0],"split_type":[0,0,0,0,0,0,0,0,0,0,0,0,0,0,0,0,0,0,0,0,0,0,0,0,0,0,0,0,0,0,0,0,0,0,0,0,0,0,0,0,0,0,0,0,0,0,0,0,0,0,0,0,0,0,0,0,0,0,0,0,0,0,0,0,0,0,0,0,0,0,0,0,0,0,0,0,0,0,0,0,0,0,0,0,0,0,0,0,0],"sum_hessian":[2.758E3,9.1646344E2,1.8415366E3,7.094387E2,2.070247E2,1.1187328E3,7.2280383E2,2.2676485E2,4.826739E2,8.03297E0,1.9899173E2,7.5267126E2,3.660615E2,4.8397083E2,2.3883298E2,2.2475484E2,2.0100107E0,1.736235E0,4.8093765E2,6.7373233E0,1.2956475E0,7.554418E1,1.23447556E2,6.249159E2,1.2775539E2,2.5588945E2,1.10172035E2,4.7193774E2,1.2033079E1,5.9528837E0,2.3288008E2,2.997062E0,4.7794058E2,6.8933624E1,6.6105547E0,9.685474E1,2.659282E1,4.7784537E2,1.4707051E2,1.0174875E2,2.6006638E1,2.39374E2,1.6515451E1,7.9710014E1,3.0462025E1,3.7488477E2,9.705299E1,3.877802E0,8.155277E0,3.7463548E0,2.206529E0,1.2212187E0,2.3165887E2,1.7440696E0,1.2529924E0,4.0573483E2,7.2205765E1,5.3968227E1,1.4965397E1,1.5908597E0,5.0196953E0,4.488836E1,5.1966377E1,5.7884655E0,2.0804352E1,2.7021906E2,2.0762633E2,1.088494E2,3.822111E1,6.3012188E1,3.873656E1,4.620022E0,2.1386616E1,3.2845483E0,2.3608945E2,1.3376496E1,3.1389554E0,5.8416977E1,2.1293036E1,2.5058107E1,5.4039173E0,3.1759521E1,3.4312524E2,5.576496E1,4.1288033E1,6.220566E0,1.9347117E0,2.2230914E2,9.349728E0],"tree_param":{"num_deleted":"0","num_feature":"35","num_nodes":"89","size_leaf_vector":"1"}},{"base_weights":[4.503841E-3,-5.917865E-1,3.0124807E-1,-7.02483E-1,-2.0096433E-1,1.0696584E-1,6.2301916E-1,-9.0234655E-1,-5.738258E-1,3.193308E-1,-2.7630287E-1,1.0135987E-2,2.8787458E-1,5.268582E-1,8.970325E-1,-9.1418266E-1,-7.0488225E-3,3.157268E-2,-5.813335E-1,6.889967E-1,-1.7520635E-1,-3.3325174E-1,1.8765342E-1,-4.132463E-1,2.8527483E-2,4.1530752E-1,3.4397315E-2,3.968163E-1,6.227303E-1,-1.5809964E-2,9.1032845E-1,-9.2115116E-1,-1.3721606E-1,2.7175192E-2,-3.689782E-2,-6.389515E-1,-4.2860746E-1,7.305863E-2,-1.5073982E-2,4.70659E-2,-6.0810577E-2,-3.6536068E-1,4.902175E-2,6.1574347E-2,-1.1300527E-1,4.0422074E-2,-5.599956E-1,8.7601975E-2,-8.952194E-2,-4.459947E-2,4.3312553E-1,2.7733615E-1,-2.1276703E-1,5.1531017E-1,1.1714297E-1,6.489189E-1,-3.6561584E-1,8.177693E-2,1.5342781E-1,-8.3043784E-2,-4.0098842E-2,-3.6731295E-2,1.2379234E-2,-2.130998E-2,-5.8902685E-2,-4.370596E-2,9.176294E-3,-2.5272373E-2,-6.2145166E-2,-4.7475163E-2,3.3281147E-2,-6.772264E-2,-0E0,4.3664793E-3,3.821455E-2,-1.255794E-2,2.694044E-2,1.1270158E-2,4.4323783E-2,3.5457447E-2,-1.9363333E-2,-3.3030715E-2,3.1508073E-2,3.644491E-2,7.752536E-2,2.4949227E-2,-4.6524044E-2,1.0529407E-2,5.955446E-2,-5.510591E-2,1.7306125E-2,-1.746964E-2,4.101963E-2],"categories":[],"categories_nodes":[],"categories_segments":[],"categories_sizes":[],"default_left":[0,0,0,0,0,0,0,0,0,0,0,0,0,0,0,0,0,0,0,0,0,0,0,0,0,0,0,0,0,0,0,0,0,0,0,0,0,0,0,0,0,0,0,0,0,0,0,0,0,0,0,0,0,0,0,0,0,0,0,0,0,0,0,0,0,0,0,0,0,0,0,0,0,0,0,0,0,0,0,0,0,0,0,0,0,0,0,0,0,0,0,0,0],"id":6,"left_children":[1,3,5,7,9,11,13,15,17,19,21,23,25,27,29,31,33,-1,35,37,39,41,43,45,47,49,51,53,55,-1,57,59,61,-1,-1,63,65,-1,-1,-1,-1,67,-1,-1,69,-1,71,73,75,-1,77,79,81,83,85,87,89,-1,91,-1,-1,-1,-1,-1,-1,-1,-1,-1,-1,-1,-1,-1,-1,-1,-1,-1,-1,-1,-1,-1,-1,-1,-1,-1,-1,-1,-1,-1,-1,-1,-1,-1,-1],"loss_changes":[4.8851044E2,3.8804474E1,1.1472063E2,1.6349823E1,8.233239E0,2.0011639E1,1.6406677E1,2.2806854E0,3.626709E0,5.305958E0,5.0372877E0,5.65595E0,1.2592075E1,5.3263245E0,3.3048248E0,5.1724243E-1,1.1214194E0,0E0,2.6286316E0,2.5675607E0,5.090305E0,4.949112E0,3.574667E0,4.4036593E0,5.0894346E0,4.6998405E0,8.418981E0,7.04356E0,8.218956E0,0E0,7.344513E-1,3.190918E-1,7.159472E-1,0E0,0E0,2.335472E0,4.815378E0,0E0,0E0,0E0,0E0,3.2848969E0,0E0,0E0,3.2553725E0,0E0,3.12576E0,6.092758E0,4.9148245E0,0E0,4.8371964E0,4.6557026E0,6.456177E0,4.376087E0,7.757311E0,2.89431E0,1.687402E0,0E0,1.0158076E0,0E0,0E0,0E0,0E0,0E0,0E0,0E0,0E0,0E0,0E0,0E0,0E0,0E0,0E0,0E0,0E0,0E0,0E0,0E0,0E0,0E0,0E0,0E0,0E0,0E0,0E0,0E0,0E0,0E0,0E0,0E0,0E0,0E0,0E0],"parents":[2147483647,0,0,1,1,2,2,3,3,4,4,5,5,6,6,7,7,8,8,9,9,10,10,11,11,12,12,13,13,14,14,15,15,16,16,18,18,19,19,20,20,21,21,22,22,23,23,24,24,25,25,26,26,27,27,28,28,30,30,31,31,32,32,35,35,36,36,41,41,44,44,46,46,47,47,48,48,50,50,51,51,52,52,53,53,54,54,55,55,56,56,58,58],"right_children":[2,4,6,8,10,12,14,16,18,20,22,24,26,28,30,32,34,-1,36,38,40,42,44,46,48,50,52,54,56,-1,58,60,62,-1,-1,64,66,-1,-1,-1,-1,68,-1,-1,70,-1,72,74,76,-1,78,80,82,84,86,88,90,-1,92,-1,-1,-1,-1,-1,-1,-1,-1,-1,-1,-1,-1,-1,-1,-1,-1,-1,-1,-1,-1,-1,-1,-1,-1,-1,-1,-1,-1,-1,-1,-1,-1,-1,-1],"split_conditions":[6.5537252E0,6.158486E0,7.665894E0,5.4192553E0,5.558371E0,7.2958117E0,8.467695E0,6.4593096E0,4.9815106E0,5.8616405E0,1E0,5.8108416E0,7.5783844E0,8.053302E0,1.2785602E-1,6.3734903E0,5.139732E0,4.043274E-3,7.8877196E-2,7.4079547E0,6.058204E-1,7.50876E0,5.5877525E-1,5.8358574E-1,7.273266E0,-1.9254417E0,-1.25212725E-2,7.9718657E0,3.5811773E-1,-1.255201E-2,3.3777887E-1,1E0,5.3084164E0,4.469051E-3,-1.16904564E-1,4.8323855E0,6.6217117E0,5.1057735E-3,-4.679528E-2,4.847934E-2,-6.500498E-2,2.2111177E-1,2.8411709E-2,1.4159717E-2,1E1,1.5205576E-2,8.25589E-1,7.286164E0,7.7249017E0,-8.184441E-4,6.8107266E0,1E0,8.334762E0,7.992599E0,8.057659E0,6.8760996E0,8.659281E0,1.1267999E-1,7.922841E0,-1.0969267E-1,-8.723584E-2,-7.638854E-2,7.08879E-3,-4.933254E-2,-5.9743166E-2,-3.8950127E-2,8.937046E-3,-2.9201815E-2,-3.8260106E-2,-2.866687E-2,1.2826472E-2,-2.4788424E-2,-1.2154824E-2,1.9305652E-3,3.8433973E-2,-9.366793E-3,7.381369E-3,1.2991006E-2,2.943527E-2,3.1756263E-2,-4.589917E-3,-1.6273692E-2,4.0206384E-2,3.3333182E-2,6.0659587E-2,4.0890023E-2,-1.1406822E-2,1.4561506E-2,6.261929E-2,-1.576151E-2,3.9228473E-2,-2.2746412E-2,1.1683015E-1],"split_indices":[6,6,6,5,1,6,6,3,4,7,22,1,5,7,16,2,0,0,10,3,15,0,9,15,1,9,10,0,16,0,16,28,1,0,0,2,1,0,0,0,0,16,0,0,11,0,8,4,3,0,2,19,2,4,4,3,0,0,0,0,0,0,0,0,0,0,0,0,0,0,0,0,0,0,0,0,0,0,0,0,0,0,0,0,0,0,0,0,0,0,0,0,0],"split_type":[0,0,0,0,0,0,0,0,0,0,0,0,0,0,0,0,0,0,0,0,0,0,0,0,0,0,0,0,0,0,0,0,0,0,0,0,0,0,0,0,0,0,0,0,0,0,0,0,0,0,0,0,0,0,0,0,0,0,0,0,0,0,0,0,0,0,0,0,0,0,0,0,0,0,0,0,0,0,0,0,0,0,0,0,0,0,0,0,0,0,0,0,0],"sum_hessian":[2.758E3,9.150738E2,1.8429263E3,7.1058356E2,2.044902E2,1.1519865E3,6.909397E2,2.7173297E2,4.388506E2,2.3968445E1,1.8052176E2,7.540609E2,3.9792557E2,5.1740753E2,1.7353221E2,2.674211E2,4.3118606E0,2.0927095E0,4.367579E2,1.4043852E1,9.924592E0,1.6253471E2,1.7987051E1,2.8176388E1,7.258845E2,2.6225092E2,1.3567465E2,2.2669902E2,2.907085E2,1.2212187E0,1.7231099E2,2.6384875E2,3.5723612E0,1.8045702E0,2.5072904E0,3.0952753E2,1.2723036E2,1.2854189E1,1.1896627E0,3.5944505E0,6.3301415E0,1.5866702E2,3.8676825E0,6.563874E0,1.1423178E1,2.8321002E0,2.5344288E1,4.8783777E2,2.3804678E2,3.2845483E0,2.5896637E2,6.9647446E1,6.602721E1,1.5643732E2,7.0261696E1,2.8449924E2,6.209249E0,1.6812427E2,4.1867247E0,2.5164363E2,1.2205114E1,2.4930358E0,1.0793253E0,2.1813711E1,2.877138E2,1.1463417E2,1.2596191E1,1.3263907E2,2.6027966E1,6.7458105E0,4.6773667E0,1.804396E1,7.3003263E0,4.4265866E2,4.5179108E1,2.1271382E2,2.533297E1,4.9495647E1,2.0947073E2,5.7168118E1,1.2479325E1,5.293504E1,1.3092165E1,1.2605658E2,3.038074E1,5.7613274E1,1.2648422E1,1.3771817E1,2.7072742E2,4.9218717E0,1.2873776E0,1.2947769E0,2.8919477E0],"tree_param":{"num_deleted":"0","num_feature":"35","num_nodes":"93","size_leaf_vector":"1"}},{"base_weights":[-0E0,-6.587732E-1,2.289231E-1,-8.9988035E-1,-5.321527E-1,5.19905E-2,5.512596E-1,-9.1302747E-1,-1.0620389E-1,-5.930989E-1,-3.7391233E-1,-4.7255248E-2,2.131978E-1,4.682833E-1,8.769503E-1,-9.2107666E-1,-9.248001E-2,-4.3820728E-2,2.7096383E-2,-4.588884E-1,-6.7770267E-1,-4.2788994E-1,1.0361012E-1,3.6580916E-4,-2.0003895E-1,2.2847466E-1,-6.078239E-2,4.9572352E-1,1.2660533E-1,7.9469785E-2,9.234243E-1,-8.258611E-2,-2.1012907E-1,1.2373725E-2,-3.3341434E-2,-5.286788E-1,-8.930144E-2,1.4688421E-2,-7.22141E-1,-5.011944E-1,-0E0,4.985156E-2,-1.1101696E-1,-6.558513E-2,1.5932463E-1,-2.5360054E-1,4.281061E-1,2.9444408E-1,-0E0,3.9771193E-1,6.2704074E-1,5.298774E-1,-1.2873812E-1,4.918142E-2,-2.4903052E-1,-0E0,8.4288046E-2,2.171731E-2,-4.744176E-2,-4.988224E-2,4.4221347E-3,-5.0716586E-2,1.7211514E-2,-4.3192446E-2,2.9745884E-2,-1.8415654E-2,-6.65194E-2,-8.80294E-3,-5.5430803E-2,5.4472964E-2,-2.1948244E-2,-3.6671456E-2,1.8382782E-2,-9.000887E-3,1.5192846E-2,-5.6916857E-3,3.0080695E-2,-5.502659E-3,-4.0606685E-2,-4.286768E-2,6.982767E-2,5.857692E-3,3.6125176E-2,1.3172539E-2,-3.431232E-2,-2.5291596E-2,3.808827E-2,-6.6889883E-3,5.6710374E-2,-0E0,7.1377724E-2,4.049215E-2,-3.520357E-2,-4.7622368E-2,1.7455243E-2,-3.0221678E-2,3.125954E-2],"categories":[],"categories_nodes":[],"categories_segments":[],"categories_sizes":[],"default_left":[0,0,0,0,0,0,0,0,0,0,0,0,0,0,0,0,0,0,0,0,0,0,0,0,0,0,0,0,0,0,0,0,0,0,0,0,0,0,0,0,0,0,0,0,0,0,0,0,0,0,0,0,0,0,0,0,0,0,0,0,0,0,0,0,0,0,0,0,0,0,0,0,0,0,0,0,0,0,0,0,0,0,0,0,0,0,0,0,0,0,0,0,0,0,0,0,0],"id":7,"left_children":[1,3,5,7,9,11,13,15,17,19,21,23,25,27,29,31,33,-1,-1,35,37,39,41,43,45,47,-1,49,51,53,55,-1,57,-1,-1,59,61,63,65,67,69,-1,71,73,75,77,79,81,83,85,87,89,91,-1,93,95,-1,-1,-1,-1,-1,-1,-1,-1,-1,-1,-1,-1,-1,-1,-1,-1,-1,-1,-1,-1,-1,-1,-1,-1,-1,-1,-1,-1,-1,-1,-1,-1,-1,-1,-1,-1,-1,-1,-1,-1,-1],"loss_changes":[4.1661566E2,1.9884918E1,1.1642528E2,1.653656E0,3.5033417E0,2.1352291E1,1.7907013E1,7.251587E-1,1.525323E0,2.4626617E0,3.9061546E0,6.098587E0,6.9866104E0,4.938141E0,4.5097733E0,7.5460815E-1,6.023391E-1,0E0,0E0,3.0813446E0,6.6042633E0,4.2225437E0,1.8500878E0,6.622284E0,6.7618647E0,7.6047153E0,0E0,5.761963E0,5.311959E0,2.154417E0,3.4436264E0,0E0,1.4934648E0,0E0,0E0,2.6878242E0,4.009808E0,2.3118515E0,1.8605728E0,4.894001E0,3.4559298E0,0E0,1.3188661E0,3.7429743E0,7.73996E0,6.851013E0,5.972623E0,9.73674E0,6.7092657E0,7.314785E0,2.5506973E0,3.079908E0,5.00154E0,0E0,1.3166565E0,9.559138E-1,0E0,0E0,0E0,0E0,0E0,0E0,0E0,0E0,0E0,0E0,0E0,0E0,0E0,0E0,0E0,0E0,0E0,0E0,0E0,0E0,0E0,0E0,0E0,0E0,0E0,0E0,0E0,0E0,0E0,0E0,0E0,0E0,0E0,0E0,0E0,0E0,0E0,0E0,0E0,0E0,0E0],"parents":[2147483647,0,0,1,1,2,2,3,3,4,4,5,5,6,6,7,7,8,8,9,9,10,10,11,11,12,12,13,13,14,14,15,15,16,16,19,19,20,20,21,21,22,22,23,23,24,24,25,25,27,27,28,28,29,29,30,30,32,32,35,35,36,36,37,37,38,38,39,39,40,40,42,42,43,43,44,44,45,45,46,46,47,47,48,48,49,49,50,50,51,51,52,52,54,54,55,55],"right_children":[2,4,6,8,10,12,14,16,18,20,22,24,26,28,30,32,34,-1,-1,36,38,40,42,44,46,48,-1,50,52,54,56,-1,58,-1,-1,60,62,64,66,68,70,-1,72,74,76,78,80,82,84,86,88,90,92,-1,94,96,-1,-1,-1,-1,-1,-1,-1,-1,-1,-1,-1,-1,-1,-1,-1,-1,-1,-1,-1,-1,-1,-1,-1,-1,-1,-1,-1,-1,-1,-1,-1,-1,-1,-1,-1,-1,-1,-1,-1,-1,-1],"split_conditions":[6.158486E0,5.333172E0,7.6327534E0,6.1964235E0,7.8877196E-2,7.1435323E0,8.645618E0,4.2043647E-1,5.0552897E0,1.4984463E-1,6.6217117E0,7.257616E0,1E0,2.5715238E-1,7.197071E-1,1E0,4.365897E0,-7.96749E-2,2.6874486E-2,6.241739E0,4.7954597E0,9.615872E0,4.941142E0,7.115225E0,7.7644873E0,7.5783844E0,-5.6207977E-2,6.83561E-1,-3.9125394E-2,8.966595E0,8.2996E0,-1.0839705E-1,4.7287145E0,1.8329853E-2,-1.2816927E-2,1.4814053E-1,-1.8371217E-1,4.86399E0,-1.4699953E0,5.341329E0,5.5007277E0,1.4028968E-2,5.926984E0,7.0033197E0,-2.4492937E-16,6.340245E-1,1.4002348E-1,9.615872E0,4.081165E-2,7.0078087E0,1.2961884E-1,-1.4086458E-1,7.8443503E0,1.1059891E-2,9.270841E0,8.533314E0,1.11520186E-1,1.2656321E-3,-9.149901E-2,-6.278564E-2,9.280387E-3,-4.3362375E-2,1.1668867E-2,-4.4963367E-2,8.654011E-3,-9.183053E-2,-6.192125E-2,-2.7532408E-2,-4.7311053E-2,3.8053468E-2,-1.8484548E-2,-3.833017E-2,3.753149E-2,-9.932651E-3,1.5421421E-2,-5.3501665E-3,1.4724646E-2,-3.8788675E-3,-3.0449964E-2,-1.34657705E-2,4.2130064E-2,9.455479E-3,3.125105E-2,1.2318259E-2,-1.5819917E-2,-1.2308842E-2,4.798008E-2,-5.111348E-3,5.528725E-2,-4.1099577E-4,6.2228356E-2,1.6452795E-2,-4.1118157E-3,-8.147277E-3,5.7496037E-2,-7.1572894E-3,9.348291E-2],"split_indices":[6,5,6,3,10,6,6,10,1,16,1,1,22,16,15,17,0,0,0,4,2,14,0,2,0,5,0,8,10,2,4,0,0,0,0,16,10,3,9,2,1,0,6,6,12,8,16,14,10,2,16,10,3,0,0,5,0,0,0,0,0,0,0,0,0,0,0,0,0,0,0,0,0,0,0,0,0,0,0,0,0,0,0,0,0,0,0,0,0,0,0,0,0,0,0,0,0],"split_type":[0,0,0,0,0,0,0,0,0,0,0,0,0,0,0,0,0,0,0,0,0,0,0,0,0,0,0,0,0,0,0,0,0,0,0,0,0,0,0,0,0,0,0,0,0,0,0,0,0,0,0,0,0,0,0,0,0,0,0,0,0,0,0,0,0,0,0,0,0,0,0,0,0,0,0,0,0,0,0,0,0,0,0,0,0,0,0,0,0,0,0,0,0,0,0,0,0],"sum_hessian":[2.758E3,7.1058356E2,2.0474164E3,2.3882742E2,4.7175613E2,1.3246127E3,7.2280383E2,2.3383385E2,4.99358E0,3.3374744E2,1.3800871E2,8.181836E2,5.0642905E2,5.81406E2,1.4139783E2,2.3053319E2,3.300653E0,3.1937976E0,1.7997824E0,1.3684602E2,1.9690141E2,1.2541251E2,1.2596191E1,6.21944E2,1.9623961E2,5.001073E2,6.3217626E0,5.3559436E2,4.581164E1,8.854842E0,1.3254298E2,2.2538858E2,5.1446137E0,1.0791078E0,2.2215452E0,1.1291154E2,2.3934494E1,1.1059086E1,1.8584233E2,1.07696304E2,1.7716213E1,3.9919477E0,8.604244E0,4.374419E2,1.8450208E2,1.8284766E2,1.3391948E1,3.8806366E2,1.1204363E2,3.1401382E2,2.2158052E2,1.79568E1,2.7854843E1,3.8911862E0,4.963656E0,4.070294E0,1.2847269E2,1.4996736E0,3.6449401E0,1.07672905E2,5.238629E0,8.982916E0,1.4951578E1,3.122851E0,7.936235E0,1.1954407E1,1.7388792E2,2.7576714E1,8.011958E1,4.794668E0,1.2921545E1,5.1729054E0,3.4313383E0,3.830912E2,5.4350708E1,8.129162E1,1.0321045E2,9.748183E1,8.536583E1,3.0869424E0,1.0305005E1,1.3176268E2,2.5630096E2,8.158161E1,3.0462025E1,1.2589554E1,3.0142426E2,3.0225246E0,2.18558E2,6.5484223E0,1.1408379E1,7.5624595E0,2.0292383E1,3.669532E0,1.294124E0,1.9995646E0,2.070729E0],"tree_param":{"num_deleted":"0","num_feature":"35","num_nodes":"97","size_leaf_vector":"1"}},{"base_weights":[-6.4534345E-4,-6.253245E-1,2.1622126E-1,-9.34706E-1,-5.130519E-1,4.4641923E-2,5.2879304E-1,-9.4444144E-1,-0E0,-5.419791E-1,-2.3635963E-1,-3.4529228E-2,1.7349163E-1,4.5339164E-1,8.2395685E-1,-9.554045E-1,-6.5535516E-2,7.3354706E-2,-5.4992527E-1,9.268602E-2,-4.7308743E-1,1.08367335E-2,-1.803374E-1,1.882685E-1,-6.078239E-2,4.9800882E-1,2.292135E-1,7.9469785E-2,8.669413E-1,-8.541684E-2,-2.3561122E-3,1.2373725E-2,-3.125954E-2,-2.7271638E-2,4.1688222E-2,-2.1511102E-1,-5.6852174E-1,5.47216E-2,-7.037012E-2,1.7314242E-1,-8.177103E-1,-6.1190512E-2,1.3539878E-1,-6.8650824E-1,-1.03965536E-1,2.5077155E-1,-2.3012184E-2,5.314993E-1,4.0902138E-2,3.4934786E-1,-9.166251E-2,4.918142E-2,-2.4903052E-1,-0E0,8.934556E-1,-4.73196E-2,2.1739993E-2,-2.7252797E-2,-5.2457448E-2,-2.2214694E-2,3.929392E-2,4.7237184E-2,-4.1887626E-2,-1.3306703E-3,-7.750321E-2,-5.446627E-4,-2.7546078E-2,3.979048E-3,4.4470374E-2,-6.662646E-2,-0E0,-1.39092E-2,3.791548E-2,5.857692E-3,3.0283699E-2,1.4252036E-2,-3.0808365E-2,5.8966294E-2,3.490378E-2,5.1936883E-2,-3.0086985E-2,2.353466E-4,4.5933418E-2,-3.357317E-2,2.4748988E-2,-4.7622368E-2,1.7455243E-2,-3.0221678E-2,3.125954E-2,8.199293E-2,3.6730997E-2],"categories":[],"categories_nodes":[],"categories_segments":[],"categories_sizes":[],"default_left":[0,0,0,0,0,0,0,0,0,0,0,0,0,0,0,0,0,0,0,0,0,0,0,0,0,0,0,0,0,0,0,0,0,0,0,0,0,0,0,0,0,0,0,0,0,0,0,0,0,0,0,0,0,0,0,0,0,0,0,0,0,0,0,0,0,0,0,0,0,0,0,0,0,0,0,0,0,0,0,0,0,0,0,0,0,0,0,0,0,0,0],"id":8,"left_children":[1,3,5,7,9,11,13,15,-1,17,19,21,23,25,27,29,31,33,35,37,39,41,43,45,-1,47,49,51,53,-1,-1,-1,-1,-1,-1,55,57,-1,59,61,63,65,67,69,71,73,75,77,79,81,83,-1,85,87,89,-1,-1,-1,-1,-1,-1,-1,-1,-1,-1,-1,-1,-1,-1,-1,-1,-1,-1,-1,-1,-1,-1,-1,-1,-1,-1,-1,-1,-1,-1,-1,-1,-1,-1,-1,-1],"loss_changes":[3.744237E2,2.2870056E1,1.094849E2,1.8305969E0,3.471222E0,1.3635396E1,1.4567139E1,9.8005676E-1,0E0,2.7140808E0,4.667162E0,5.5402527E0,6.379981E0,5.135315E0,3.8302917E0,8.169708E-1,5.3528833E-1,1.4021465E0,2.1753082E0,2.4756846E0,8.230692E0,5.66218E0,7.002235E0,6.7909145E0,0E0,6.966118E0,4.196367E0,2.154417E0,3.0274734E0,0E0,0E0,0E0,0E0,0E0,0E0,4.8107986E0,1.7990417E0,0E0,1.8385955E0,3.4804742E0,4.505453E-1,5.195311E0,7.310839E0,1.2627182E0,4.9107776E0,6.2518044E0,7.0410843E0,7.061348E0,8.097608E0,4.1573296E0,3.2622244E0,0E0,1.3166565E0,9.559138E-1,3.943634E-1,0E0,0E0,0E0,0E0,0E0,0E0,0E0,0E0,0E0,0E0,0E0,0E0,0E0,0E0,0E0,0E0,0E0,0E0,0E0,0E0,0E0,0E0,0E0,0E0,0E0,0E0,0E0,0E0,0E0,0E0,0E0,0E0,0E0,0E0,0E0,0E0],"parents":[2147483647,0,0,1,1,2,2,3,3,4,4,5,5,6,6,7,7,9,9,10,10,11,11,12,12,13,13,14,14,15,15,16,16,17,17,18,18,19,19,20,20,21,21,22,22,23,23,25,25,26,26,27,27,28,28,35,35,36,36,38,38,39,39,40,40,41,41,42,42,43,43,44,44,45,45,46,46,47,47,48,48,49,49,50,50,52,52,53,53,54,54],"right_children":[2,4,6,8,10,12,14,16,-1,18,20,22,24,26,28,30,32,34,36,38,40,42,44,46,-1,48,50,52,54,-1,-1,-1,-1,-1,-1,56,58,-1,60,62,64,66,68,70,72,74,76,78,80,82,84,-1,86,88,90,-1,-1,-1,-1,-1,-1,-1,-1,-1,-1,-1,-1,-1,-1,-1,-1,-1,-1,-1,-1,-1,-1,-1,-1,-1,-1,-1,-1,-1,-1,-1,-1,-1,-1,-1,-1],"split_conditions":[6.158486E0,5.1781774E0,7.6327534E0,5.9465456E0,9.615872E0,7.1435323E0,8.645618E0,4.2043647E-1,2.4494326E-2,4.3423758E0,5.9821024E0,7.257616E0,1E0,1E0,7.197071E-1,5.971032E0,4.365897E0,4.90797E0,4.7287145E0,5.351858E0,1.4292479E-1,6.827469E0,6.631909E0,7.5783844E0,-5.122987E-2,2.546323E-1,7.9734883E0,8.966595E0,8.2996E0,-1.06808774E-1,-4.5514613E-2,1.670648E-2,-4.424822E-2,-1.5381293E-1,4.579824E-3,5.942826E0,4.751778E0,2.8129011E-2,6.481623E0,1.1E1,-5E-1,2.1668382E-1,1.2970014E-1,7.6525884E0,7.7644873E0,9.615872E0,4.320195E-3,6.123234E-17,-3.9125394E-2,7.380935E0,8.313985E0,1.0080377E-2,9.270841E0,8.533314E0,9.439507E0,-4.3241E-2,4.0469905E-3,-3.952198E-2,-5.3691622E-2,-1.6847448E-2,4.0144134E-2,6.9082086E-3,-8.959526E-2,-8.545219E-2,-5.643717E-2,-2.9566188E-4,-2.5973648E-2,1.2230207E-3,1.6788239E-2,-5.9391E-2,3.984708E-2,-8.333813E-3,3.5789825E-2,8.618031E-3,2.848329E-2,1.5368083E-2,-8.480399E-3,5.6894533E-2,4.2306338E-2,3.5790585E-2,-2.3714607E-3,6.762595E-3,3.188224E-2,-2.4174042E-2,5.671708E-2,-7.425712E-3,5.240386E-2,-6.5233964E-3,8.5203536E-2,1.0489024E-1,5.8658287E-2],"split_indices":[6,6,6,3,14,6,6,10,0,2,6,1,22,32,15,1,0,4,0,3,16,6,5,5,0,16,5,2,4,0,0,0,0,0,0,1,3,0,0,11,13,16,10,1,0,14,10,13,10,2,4,0,0,5,5,0,0,0,0,0,0,0,0,0,0,0,0,0,0,0,0,0,0,0,0,0,0,0,0,0,0,0,0,0,0,0,0,0,0,0,0],"split_type":[0,0,0,0,0,0,0,0,0,0,0,0,0,0,0,0,0,0,0,0,0,0,0,0,0,0,0,0,0,0,0,0,0,0,0,0,0,0,0,0,0,0,0,0,0,0,0,0,0,0,0,0,0,0,0,0,0,0,0,0,0,0,0,0,0,0,0,0,0,0,0,0,0,0,0,0,0,0,0,0,0,0,0,0,0,0,0,0,0,0,0],"sum_hessian":[2.758E3,7.1058356E2,2.0474164E3,1.8387857E2,5.26705E2,1.3246127E3,7.2280383E2,1.8211992E2,1.7586508E0,4.7302142E2,5.368357E1,8.181836E2,5.0642905E2,5.81406E2,1.4139783E2,1.7897008E2,3.1498368E0,4.7711644E0,4.6825027E2,2.1789011E1,3.189456E1,6.21944E2,1.9623961E2,5.001073E2,6.3217626E0,4.8048215E2,1.0092383E2,8.854842E0,1.3254298E2,1.7646877E2,2.5013058E0,1.0791078E0,2.070729E0,1.8104463E0,2.9607182E0,2.7779434E1,4.4047083E2,4.84407E0,1.694494E1,1.0762241E1,2.1132318E1,3.9134473E2,2.3059924E2,2.2575191E1,1.7366441E2,3.8806366E2,1.1204363E2,4.4604678E2,3.4435364E1,7.4800545E1,2.6123287E1,3.8911862E0,4.963656E0,4.070294E0,1.2847269E2,1.7070837E1,1.0708596E1,4.136594E1,3.991049E2,1.4221871E1,2.7230685E0,7.780631E0,2.9816103E0,2.3383026E0,1.8794016E1,3.244741E2,6.687062E1,1.8814548E2,4.2453754E1,2.0708597E1,1.8665941E0,1.6027248E2,1.3391948E1,1.3176268E2,2.5630096E2,7.086496E1,4.1178673E1,2.193951E2,2.2665169E2,1.4434385E1,2.0000978E1,2.6461262E1,4.8339283E1,1.56985855E1,1.0424701E1,3.669532E0,1.294124E0,1.9995646E0,2.070729E0,1.1736779E2,1.1104897E1],"tree_param":{"num_deleted":"0","num_feature":"35","num_nodes":"91","size_leaf_vector":"1"}},{"base_weights":[-8.017911E-3,-5.9907305E-1,1.9716531E-1,-8.6954564E-2,-5.0070775E-1,3.6838576E-2,4.8919123E-1,4.4904698E-2,-5.094695E-1,-6.8631686E-2,1.2288936E-1,4.1237658E-1,7.906422E-1,-6.1857826E-1,-4.0750423E-1,3.9230112E-2,-1.6480069E-1,2.1335177E-2,2.0146653E-1,4.3365115E-1,-0E0,-9.7017355E-2,8.1863326E-1,-6.7899245E-1,-3.4007683E-1,-1.6365723E-1,-5.080998E-1,-2.7578285E-1,1.3075255E-1,-7.068452E-2,-1.3513519E-1,2.0292273E-1,-5.0342992E-2,2.7012894E-1,-3.617618E-2,5.3050154E-1,3.3672595E-1,-4.877279E-1,5.414121E-1,1.3838435E-2,-3.461417E-2,1.1968786E-1,8.61873E-1,-0E0,-6.1100844E-2,2.7903184E-2,-4.1528307E-2,-2.4028515E-2,5.025685E-2,-3.495041E-2,-6.332234E-2,4.7123723E-2,-4.125973E-2,2.1760477E-2,-9.296803E-3,7.137045E-3,-1.802644E-2,3.342765E-2,-1.6536353E-2,-7.814026E-4,-5.6882378E-2,1.7367227E-2,5.0415307E-2,-4.875156E-2,1.5437359E-2,5.128958E-2,-1.1803568E-2,2.5095526E-2,6.1926845E-2,1.954702E-2,-7.085066E-2,7.138558E-2,-3.4246955E-2,5.3395636E-2,-2.5442436E-2,7.893282E-2,3.6730997E-2],"categories":[],"categories_nodes":[],"categories_segments":[],"categories_sizes":[],"default_left":[0,0,0,0,0,0,0,0,0,0,0,0,0,0,0,0,0,0,0,0,0,0,0,0,0,0,0,0,0,0,0,0,0,0,0,0,0,0,0,0,0,0,0,0,0,0,0,0,0,0,0,0,0,0,0,0,0,0,0,0,0,0,0,0,0,0,0,0,0,0,0,0,0,0,0,0,0],"id":9,"left_children":[1,3,5,-1,7,9,11,-1,13,15,17,19,21,23,25,27,29,31,33,35,37,39,41,43,45,47,49,51,53,-1,55,57,59,61,63,65,67,69,71,-1,-1,73,75,-1,-1,-1,-1,-1,-1,-1,-1,-1,-1,-1,-1,-1,-1,-1,-1,-1,-1,-1,-1,-1,-1,-1,-1,-1,-1,-1,-1,-1,-1,-1,-1,-1,-1],"loss_changes":[3.352021E2,2.489943E1,9.556821E1,0E0,5.5518036E0,1.2091449E1,1.5360184E1,0E0,5.1659393E0,6.254833E0,5.7073717E0,5.0665817E0,4.189789E0,3.3912888E0,6.8249817E0,7.995436E0,5.1425133E0,4.3671384E0,6.8678417E0,4.2887344E0,8.654191E0,6.732663E-1,3.3815155E0,1.9885483E0,4.907651E0,7.436977E0,3.6905785E0,9.899629E0,6.063306E0,0E0,4.6372457E0,6.7435946E0,5.2837796E0,6.3822956E0,1.0340159E1,9.173561E0,4.4996376E0,4.5081725E0,4.7173657E0,0E0,0E0,2.7597826E0,1.4006805E-1,0E0,0E0,0E0,0E0,0E0,0E0,0E0,0E0,0E0,0E0,0E0,0E0,0E0,0E0,0E0,0E0,0E0,0E0,0E0,0E0,0E0,0E0,0E0,0E0,0E0,0E0,0E0,0E0,0E0,0E0,0E0,0E0,0E0,0E0],"parents":[2147483647,0,0,1,1,2,2,4,4,5,5,6,6,8,8,9,9,10,10,11,11,12,12,13,13,14,14,15,15,16,16,17,17,18,18,19,19,20,20,21,21,22,22,23,23,24,24,25,25,26,26,27,27,28,28,30,30,31,31,32,32,33,33,34,34,35,35,36,36,37,37,38,38,41,41,42,42],"right_children":[2,4,6,-1,8,10,12,-1,14,16,18,20,22,24,26,28,30,32,34,36,38,40,42,44,46,48,50,52,54,-1,56,58,60,62,64,66,68,70,72,-1,-1,74,76,-1,-1,-1,-1,-1,-1,-1,-1,-1,-1,-1,-1,-1,-1,-1,-1,-1,-1,-1,-1,-1,-1,-1,-1,-1,-1,-1,-1,-1,-1,-1,-1,-1,-1],"split_conditions":[6.158486E0,5.0098057E0,7.6327534E0,-1.020895E-1,4.0766897E0,6.955376E0,8.727284E0,3.954428E-2,5.699742E0,6.6391306E0,9.615872E0,1E0,1.1002116E1,5.786437E0,5.78249E0,1.4758226E-1,5.62918E-1,7.060363E0,7.5783844E0,6.123234E-17,7.8643775E0,8.892E0,7.197071E-1,4.851216E0,5.67271E0,5.7347665E0,1.7773776E-1,1.19759984E-1,2.0508379E-1,-9.534059E-2,-5.932975E-1,8.2485217E-1,1E0,7.9492897E-1,7.4077363E0,2.546323E-1,8.713519E-1,7.092266E0,4.4727802E-2,2.1775555E-2,-4.9785852E-2,-1.7230831E-1,9.439507E0,4.099991E-3,-6.0044277E-2,4.1741915E-3,-6.7718096E-2,-1.631985E-2,1.21082E-2,-3.6021676E-2,-4.0781997E-2,1.7688444E-2,-3.6668364E-2,7.362323E-3,-1.1603831E-2,2.287167E-3,-1.6706016E-2,3.0314317E-2,-1.5174114E-2,-2.005357E-3,-7.9077244E-2,1.8186731E-2,3.503452E-2,-1.0000221E-2,1.4176398E-2,4.7079116E-2,-5.5378006E-4,3.2620784E-2,6.2338665E-2,6.1636698E-3,-2.1568324E-2,5.9476983E-2,-2.103697E-2,7.413993E-2,-1.2247522E-3,9.292854E-2,5.346315E-2],"split_indices":[6,6,6,0,1,6,5,0,6,1,14,28,14,7,4,16,15,6,5,13,3,0,15,5,4,4,16,16,16,0,9,15,22,15,0,16,8,3,10,0,0,10,5,0,0,0,0,0,0,0,0,0,0,0,0,0,0,0,0,0,0,0,0,0,0,0,0,0,0,0,0,0,0,0,0,0,0],"split_type":[0,0,0,0,0,0,0,0,0,0,0,0,0,0,0,0,0,0,0,0,0,0,0,0,0,0,0,0,0,0,0,0,0,0,0,0,0,0,0,0,0,0,0,0,0,0,0,0,0,0,0,0,0,0,0,0,0,0,0,0,0,0,0,0,0,0,0,0,0,0,0,0,0,0,0,0,0],"sum_hessian":[2.758E3,7.1058356E2,2.0474164E3,1.4037193E2,5.702117E2,1.3246127E3,7.2280383E2,3.321001E0,5.668906E2,5.9188715E2,7.3272546E2,5.8140674E2,1.4139706E2,2.660084E2,3.0088226E2,2.7629337E2,3.155938E2,3.2435788E2,4.0836758E2,5.5251697E2,2.8889772E1,3.4575624E0,1.379395E2,2.1436638E2,5.1642002E1,9.1266594E1,2.0961568E2,5.970631E1,2.1658705E2,1.08912945E1,3.047025E2,9.339924E1,2.3095865E2,3.1877237E2,8.9595215E1,2.6864777E2,2.838692E2,1.5184548E1,1.3705223E1,1.1380849E0,2.3194776E0,9.347551E0,1.2859195E2,2.6033733E0,2.11763E2,7.1872687E0,4.4454735E1,8.13963E1,9.870294E0,1.4104646E2,6.856921E1,1.0051143E1,4.965517E1,1.4741534E2,6.917171E1,7.095593E1,2.3374657E2,6.5716866E1,2.7682373E1,2.186901E2,1.2268553E1,2.5985266E2,5.8919697E1,2.6023287E1,6.3571926E1,2.5146964E2,1.717813E1,2.5201936E2,3.1849836E1,4.173014E0,1.1011535E1,1.1414473E1,2.2907507E0,4.588683E0,4.758868E0,1.1748705E2,1.1104897E1],"tree_param":{"num_deleted":"0","num_feature":"35","num_nodes":"77","size_leaf_vector":"1"}},{"base_weights":[-7.843016E-3,-5.2219427E-1,2.0529923E-1,-9.691787E-1,-4.2472613E-1,4.8458375E-2,4.5767164E-1,-8.691468E-2,-1.8290114E-1,-4.658031E-1,-1.736066E-1,-5.8249854E-3,1.8528326E-1,3.8997525E-1,7.3259217E-1,-2.5608556E-2,-0E0,-4.995075E-1,-1.235843E-1,1.6555601E-1,-3.8111117E-1,-4.2374504E-1,1.0730352E-2,4.5764986E-1,9.475065E-2,4.0876338E-1,-1.5427884E-1,-9.7017355E-2,7.591482E-1,4.4904698E-2,-5.091745E-1,1.6351232E-1,-3.646772E-1,6.9182776E-2,-8.235371E-2,-6.7996746E-1,-1.2549594E-1,2.3210341E-2,-4.9210176E-1,4.5096472E-2,-2.0300734E-1,6.3026744E-1,-0E0,1.5813169E-1,-2.8141513E-1,4.3208486E-1,1.31065585E-2,4.413575E-1,-6.042794E-1,1.3838435E-2,-3.461417E-2,1.1968786E-1,7.068668E-2,-4.5715038E-2,2.006822E-3,2.667413E-2,-3.899249E-2,1.5334466E-2,-6.0478937E-2,-4.1565523E-2,2.3312753E-2,1.3369024E-2,-6.649634E-2,1.742147E-2,-3.8224418E-2,2.0503653E-2,-4.9631868E-2,1.7793322E-3,5.332333E-2,1.5845247E-2,-2.9158972E-2,-7.6172724E-3,6.0064156E-2,-2.8717319E-2,4.1999627E-2,1.9141786E-2,-2.081634E-2,-4.9381584E-2,3.4818158E-2,4.8574816E-2,2.8044438E-2,-3.211681E-2,4.2368937E-2,-1.7479235E-2,5.9820324E-2,1.7416822E-2,-6.910543E-2,5.3395636E-2,-2.5442436E-2],"categories":[],"categories_nodes":[],"categories_segments":[],"categories_sizes":[],"default_left":[0,0,0,0,0,0,0,0,0,0,0,0,0,0,0,0,0,0,0,0,0,0,0,0,0,0,0,0,0,0,0,0,0,0,0,0,0,0,0,0,0,0,0,0,0,0,0,0,0,0,0,0,0,0,0,0,0,0,0,0,0,0,0,0,0,0,0,0,0,0,0,0,0,0,0,0,0,0,0,0,0,0,0,0,0,0,0,0,0],"id":10,"left_children":[1,3,5,7,9,11,13,-1,15,17,19,21,23,25,27,-1,-1,29,31,33,35,37,39,41,43,45,47,49,51,-1,53,55,57,-1,59,61,63,-1,65,67,69,71,73,75,77,79,81,83,85,-1,-1,87,-1,-1,-1,-1,-1,-1,-1,-1,-1,-1,-1,-1,-1,-1,-1,-1,-1,-1,-1,-1,-1,-1,-1,-1,-1,-1,-1,-1,-1,-1,-1,-1,-1,-1,-1,-1,-1],"loss_changes":[3.029867E2,3.3579025E1,7.688057E1,2.4954224E-1,6.3307114E0,9.088734E0,1.2597504E1,0E0,1.248852E-1,6.0696487E0,7.2646055E0,6.251321E0,8.096172E0,6.4741287E0,3.7359467E0,0E0,0E0,5.544327E0,4.0969744E0,6.3683147E0,4.1560917E0,2.015202E0,6.0133605E0,7.026354E0,6.306019E0,5.1062927E0,6.0936894E0,6.732663E-1,2.697441E0,0E0,2.2645721E0,2.281355E0,6.05265E0,0E0,4.1187134E0,2.2416668E0,4.0450177E0,0E0,2.0912728E0,9.589669E0,5.6468606E0,2.632141E0,3.8978653E0,5.3058352E0,7.480809E0,6.5115204E0,6.7398148E0,1.9582137E0,2.5233479E0,0E0,0E0,2.7597826E0,0E0,0E0,0E0,0E0,0E0,0E0,0E0,0E0,0E0,0E0,0E0,0E0,0E0,0E0,0E0,0E0,0E0,0E0,0E0,0E0,0E0,0E0,0E0,0E0,0E0,0E0,0E0,0E0,0E0,0E0,0E0,0E0,0E0,0E0,0E0,0E0,0E0],"parents":[2147483647,0,0,1,1,2,2,3,3,4,4,5,5,6,6,8,8,9,9,10,10,11,11,12,12,13,13,14,14,17,17,18,18,19,19,20,20,21,21,22,22,23,23,24,24,25,25,26,26,27,27,28,28,30,30,31,31,32,32,34,34,35,35,36,36,38,38,39,39,40,40,41,41,42,42,43,43,44,44,45,45,46,46,47,47,48,48,51,51],"right_children":[2,4,6,8,10,12,14,-1,16,18,20,22,24,26,28,-1,-1,30,32,34,36,38,40,42,44,46,48,50,52,-1,54,56,58,-1,60,62,64,-1,66,68,70,72,74,76,78,80,82,84,86,-1,-1,88,-1,-1,-1,-1,-1,-1,-1,-1,-1,-1,-1,-1,-1,-1,-1,-1,-1,-1,-1,-1,-1,-1,-1,-1,-1,-1,-1,-1,-1,-1,-1,-1,-1,-1,-1,-1,-1],"split_conditions":[6.3887916E0,5.0098057E0,7.6162186E0,1E0,6.158486E0,7.2958117E0,8.727284E0,-9.4584264E-2,4.8914013E0,9.615872E0,6.055753E0,5.679353E0,6.994685E0,3.185872E-1,1.1002116E1,-5.095562E-2,6.883799E-3,4.0766897E0,6.0082173E0,4.4211388E-1,6.458511E0,5.452804E-1,8.3631665E-1,7.837921E0,8.184547E0,1E0,8.660254E-1,8.892E0,7.197071E-1,3.604203E-2,6.1245546E0,6.4941473E0,1.4292479E-1,2.4477137E-2,7.714302E-1,2E0,6.123234E-17,2.5954222E-2,6.4064517E0,2.192656E-1,4E0,6.2771883E0,7.5109982E0,8.334762E0,6.9833195E-1,6.123234E-17,7.8643775E0,6.7005587E0,6.6815195E0,1.9846974E-2,-4.5376517E-2,-1.7230831E-1,8.400454E-2,-4.1424464E-2,3.902137E-3,4.723833E-3,-2.2662625E-2,5.1107146E-3,-4.782691E-2,-3.8497407E-2,8.758915E-3,3.304939E-2,-6.640302E-2,6.0193227E-3,-4.3741066E-2,5.0593656E-2,-5.7949305E-2,6.599075E-4,9.292339E-3,3.7084217E-3,-1.5526112E-2,-1.70937E-2,3.513828E-2,-2.1037138E-3,3.0431509E-2,1.1038142E-2,-1.2908274E-2,-2.0467732E-2,2.9779963E-2,4.290953E-2,3.2736454E-2,-1.396068E-2,3.6013566E-2,-3.4886075E-3,5.4381598E-2,5.260932E-3,-1.1637109E-2,6.757367E-2,-1.116302E-3],"split_indices":[6,6,6,22,6,6,5,0,1,14,7,0,1,16,14,0,0,1,6,9,7,15,15,0,3,28,12,0,15,0,6,2,16,0,15,11,13,0,6,10,11,3,6,1,8,13,3,0,0,0,0,10,0,0,0,0,0,0,0,0,0,0,0,0,0,0,0,0,0,0,0,0,0,0,0,0,0,0,0,0,0,0,0,0,0,0,0,0,0],"split_type":[0,0,0,0,0,0,0,0,0,0,0,0,0,0,0,0,0,0,0,0,0,0,0,0,0,0,0,0,0,0,0,0,0,0,0,0,0,0,0,0,0,0,0,0,0,0,0,0,0,0,0,0,0,0,0,0,0,0,0,0,0,0,0,0,0,0,0,0,0,0,0,0,0,0,0,0,0,0,0,0,0,0,0,0,0,0,0,0,0],"sum_hessian":[2.758E3,8.08129E2,1.949871E3,1.4037193E2,6.6775714E2,1.2055643E3,7.4430664E2,1.3693405E2,3.4378672E0,5.702117E2,9.754549E1,8.610057E2,3.4455865E2,6.0290955E2,1.4139706E2,1.7116431E0,1.7262242E0,5.165281E2,5.368357E1,3.5969532E1,6.1575954E1,3.2515453E1,8.2849023E2,8.218977E1,2.6236887E2,5.844255E2,1.8484114E1,3.4575624E0,1.379395E2,3.321001E0,5.132071E2,2.3540262E1,3.0143309E1,9.897932E0,2.60716E1,2.5721981E1,3.5853973E1,1.5780196E0,3.0937431E1,7.176986E2,1.1079162E2,6.0110336E1,2.2079433E1,2.2699217E2,3.5376713E1,5.501547E2,3.427073E1,7.340805E0,1.1143308E1,1.1380849E0,2.3194776E0,9.347551E0,1.2859195E2,5.0782153E2,5.3855276E0,2.0845484E1,2.694777E0,1.0762241E1,1.9381067E1,1.2872579E1,1.319902E1,1.1189337E0,2.4603046E1,1.675506E1,1.9098911E1,1.4385202E0,2.9498913E1,6.89907E2,2.7791622E1,2.6025352E1,8.4766266E1,2.8112078E0,5.729913E1,1.42328615E1,7.8465724E0,2.0002884E2,2.696333E1,2.6031012E1,9.345702E0,2.6751154E2,2.826432E2,1.8412079E1,1.585865E1,1.2952121E0,6.0455933E0,1.2923831E0,9.8509245E0,4.588683E0,4.758868E0],"tree_param":{"num_deleted":"0","num_feature":"35","num_nodes":"89","size_leaf_vector":"1"}},{"base_weights":[-9.46194E-3,-5.194304E-1,1.7487353E-1,-8.5130505E-2,-4.204219E-1,3.1743206E-2,4.3120226E-1,-4.491456E-1,-8.6342946E-2,-5.596392E-2,1.023128E-1,3.6131054E-1,7.052579E-1,-4.599448E-1,1.5213995E-1,-3.7088376E-1,4.1889757E-1,-9.398308E-2,2.5605416E-1,3.6196187E-2,3.945572E-1,4.037342E-1,1.4914791E-1,-9.7017355E-2,7.311382E-1,-5.435002E-1,-3.6429477E-1,5.1379435E-2,-2.3200153E-1,-4.8585328E-1,2.4201933E-1,6.65893E-1,-0E0,-5.340863E-2,-4.0285712E-1,4.2091584E-1,-3.48305E-1,1.4178894E-1,-7.457707E-2,4.4593748E-1,-4.4515422E-1,7.136063E-1,3.5049742E-1,2.9762566E-1,-2.4374469E-1,1.3838435E-2,-3.461417E-2,1.1968786E-1,6.80283E-2,-5.2141476E-2,-2.0528179E-2,-3.909707E-2,-1.0896813E-2,-3.125954E-2,-0E0,-5.5148885E-2,3.6183733E-3,3.3908762E-2,-0E0,6.735707E-2,-0E0,-4.5447085E-2,4.177359E-2,-2.8467404E-2,4.825008E-7,-5.8355503E-2,-3.7517198E-3,-6.8144826E-3,5.937791E-2,1.9380353E-2,-6.3748695E-2,3.9903754E-3,3.3410084E-2,-1.3560037E-2,1.8246837E-2,4.630101E-2,-1.1056947E-2,-5.1982515E-2,-0E0,6.831149E-2,-9.342692E-3,-5.6454763E-2,3.2554146E-2,5.9737366E-2,8.240166E-3,-5.5007573E-2,2.4748988E-2,5.3395636E-2,-2.5442436E-2],"categories":[],"categories_nodes":[],"categories_segments":[],"categories_sizes":[],"default_left":[0,0,0,0,0,0,0,0,0,0,0,0,0,0,0,0,0,0,0,0,0,0,0,0,0,0,0,0,0,0,0,0,0,0,0,0,0,0,0,0,0,0,0,0,0,0,0,0,0,0,0,0,0,0,0,0,0,0,0,0,0,0,0,0,0,0,0,0,0,0,0,0,0,0,0,0,0,0,0,0,0,0,0,0,0,0,0,0,0],"id":11,"left_children":[1,3,5,-1,7,9,11,13,15,17,19,21,23,25,27,29,31,33,35,37,39,41,43,45,47,49,51,-1,53,55,57,59,61,63,65,67,69,71,73,75,77,79,81,83,85,-1,-1,87,-1,-1,-1,-1,-1,-1,-1,-1,-1,-1,-1,-1,-1,-1,-1,-1,-1,-1,-1,-1,-1,-1,-1,-1,-1,-1,-1,-1,-1,-1,-1,-1,-1,-1,-1,-1,-1,-1,-1,-1,-1],"loss_changes":[2.5985022E2,3.0423584E1,7.406071E1,0E0,5.3724136E0,8.118008E0,1.2687393E1,3.9370651E0,7.7520833E0,6.8067045E0,1.375374E1,4.770035E0,3.53051E0,3.3841324E0,2.1583781E0,2.865098E0,2.2259452E0,6.1659474E0,6.459421E0,7.054541E0,6.0901833E0,6.774544E0,6.175541E0,6.732663E-1,2.3998718E0,3.1985397E0,4.4398956E0,0E0,1.7982239E-1,2.6776552E0,2.67112E-1,7.2267866E-1,2.4900165E0,6.841606E0,4.8483105E0,6.7090597E0,3.4534564E0,6.7416034E0,6.413283E0,5.9300957E0,6.02687E-1,3.7647514E0,7.3130264E0,5.2894125E0,6.098356E0,0E0,0E0,2.7597826E0,0E0,0E0,0E0,0E0,0E0,0E0,0E0,0E0,0E0,0E0,0E0,0E0,0E0,0E0,0E0,0E0,0E0,0E0,0E0,0E0,0E0,0E0,0E0,0E0,0E0,0E0,0E0,0E0,0E0,0E0,0E0,0E0,0E0,0E0,0E0,0E0,0E0,0E0,0E0,0E0,0E0],"parents":[2147483647,0,0,1,1,2,2,4,4,5,5,6,6,7,7,8,8,9,9,10,10,11,11,12,12,13,13,14,14,15,15,16,16,17,17,18,18,19,19,20,20,21,21,22,22,23,23,24,24,25,25,26,26,28,28,29,29,30,30,31,31,32,32,33,33,34,34,35,35,36,36,37,37,38,38,39,39,40,40,41,41,42,42,43,43,44,44,47,47],"right_children":[2,4,6,-1,8,10,12,14,16,18,20,22,24,26,28,30,32,34,36,38,40,42,44,46,48,50,52,-1,54,56,58,60,62,64,66,68,70,72,74,76,78,80,82,84,86,-1,-1,88,-1,-1,-1,-1,-1,-1,-1,-1,-1,-1,-1,-1,-1,-1,-1,-1,-1,-1,-1,-1,-1,-1,-1,-1,-1,-1,-1,-1,-1,-1,-1,-1,-1,-1,-1,-1,-1,-1,-1,-1,-1],"split_conditions":[6.21041E0,4.960176E0,7.6327534E0,-8.763552E-2,1E0,6.9382067E0,8.727284E0,4.2043647E-1,6.0131283E0,1.5769614E0,3.164569E-1,1E0,1.1002116E1,5.7924953E0,-2.4492937E-16,9.615872E0,5.526886E0,8.3631665E-1,8.8419026E-1,-1.598935E-2,8.444769E0,-1.0450995E0,7.9734883E0,8.892E0,7.197071E-1,7.399267E-1,4.761058E-2,3.3382636E-3,4.6151204E0,7.6147383E-1,1.4121877E-1,5.8379383E0,8.987322E0,5.969628E0,6.943538E0,6.4995165E0,6.760322E0,7.426448E0,1.5753609E-1,1E0,2.0277952E-1,8.927333E0,1.3040665E-1,1.7831604E-1,8.313985E0,1.808922E-2,-4.1357737E-2,-1.7230831E-1,7.656464E-2,-5.117784E-2,-1.1251706E-2,-3.758901E-2,-1.2838001E-2,-3.1342734E-2,6.305968E-2,-5.1533133E-2,1.9248639E-3,2.5384774E-2,-1.3161439E-1,2.0511907E-2,4.3054465E-3,-6.437304E-2,2.3408853E-3,-2.3965884E-2,3.129345E-4,-3.929275E-2,-1.2465816E-2,-1.9719772E-2,3.70267E-2,2.703353E-2,-3.9509438E-2,3.0448823E-3,2.4030752E-2,-6.8897116E-3,5.205651E-3,3.608798E-2,-8.839154E-3,-1.8820921E-2,9.3745254E-2,5.345424E-2,-1.7581599E-2,-1.8036304E-2,3.344024E-2,3.4400877E-2,4.794993E-3,-2.782144E-2,4.7942623E-2,6.1588973E-2,-1.0174384E-3],"split_indices":[6,6,6,0,12,2,5,10,3,9,9,32,14,2,12,14,2,15,15,10,1,9,5,0,15,15,9,0,0,8,16,6,14,2,5,0,3,6,10,22,16,4,16,16,4,0,0,10,0,0,0,0,0,0,0,0,0,0,0,0,0,0,0,0,0,0,0,0,0,0,0,0,0,0,0,0,0,0,0,0,0,0,0,0,0,0,0,0,0],"split_type":[0,0,0,0,0,0,0,0,0,0,0,0,0,0,0,0,0,0,0,0,0,0,0,0,0,0,0,0,0,0,0,0,0,0,0,0,0,0,0,0,0,0,0,0,0,0,0,0,0,0,0,0,0,0,0,0,0,0,0,0,0,0,0,0,0,0,0,0,0,0,0,0,0,0,0,0,0,0,0,0,0,0,0,0,0,0,0,0,0],"sum_hessian":[2.758E3,7.3225757E2,2.0257424E3,1.2976724E2,6.024903E2,1.3029386E3,7.2280383E2,5.523625E2,5.0127857E1,5.769472E2,7.259914E2,5.8140674E2,1.4139706E2,5.4413873E2,8.2237215E0,3.323025E1,1.6897606E1,5.173663E2,5.958096E1,5.9565485E2,1.3033656E2,4.804829E2,1.0092383E2,3.4575624E0,1.379395E2,2.8193298E2,2.6220578E2,4.2352557E0,3.9884658E0,2.9223286E1,4.006964E0,1.0540914E1,6.3566923E0,4.6118063E2,5.618564E1,4.8127964E1,1.1452992E1,3.0772623E2,2.8792862E2,1.2441338E2,5.9231772E0,6.512165E1,4.1536127E2,7.4800545E1,2.6123287E1,1.1380849E0,2.3194776E0,9.347551E0,1.2859195E2,2.4286322E2,3.9069748E1,1.9538977E2,6.6815994E1,2.070729E0,1.9177368E0,2.3910446E1,5.31284E0,2.2646356E0,1.7423286E0,8.879761E0,1.6611534E0,3.387051E0,2.9696407E0,7.7076935E1,3.841037E2,3.0850054E1,2.5335583E1,1.5632426E1,3.2495537E1,4.1449404E0,7.308052E0,2.2172655E2,8.599967E1,2.2748781E2,6.0440804E1,1.1081023E2,1.3603156E1,4.336888E0,1.5862894E0,6.1692383E1,3.429271E0,5.2096844E0,4.1015158E2,2.3626007E1,5.1174538E1,1.56985855E1,1.0424701E1,4.588683E0,4.758868E0],"tree_param":{"num_deleted":"0","num_feature":"35","num_nodes":"89","size_leaf_vector":"1"}},{"base_weights":[1.3868738E-3,-4.6062064E-1,1.6899589E-1,-8.6531353E-1,-3.6103392E-1,3.8671367E-2,4.4471696E-1,-1.5440957E-2,-8.9640117E-1,-4.4256264E-1,-2.0262754E-1,-1.5425933E-2,1.544426E-1,3.7047204E-1,6.970752E-1,3.6958564E-2,-4.4650793E-2,-9.074791E-1,-0E0,-4.589579E-1,6.691931E-2,-3.8021153E-1,-2.073063E-2,-3.5177743E-1,2.487865E-3,7.650163E-1,1.2559006E-1,4.1542962E-1,1.4098297E-1,2.9560146E-1,7.687495E-1,-8.138984E-2,-1.1584139E-2,-3.3817643E-1,-5.878381E-1,-2.1463339E-1,4.9814533E-2,-5.2948177E-1,5.4610777E-3,1.5375912E-1,-4.1701132E-1,3.8876176E-1,-4.7004083E-1,-2.5328262E-2,2.0258923E-1,2.9054347E-3,7.4255645E-2,1.8157376E-1,-1.2570676E-1,4.8004887E-1,2.0163853E-1,4.6364212E-1,-8.782542E-3,6.030761E-1,-2.833986E-1,-0E0,6.911782E-2,-4.903165E-2,-1.1813144E-2,-5.759916E-2,-2.1822633E-2,3.1046767E-2,-5.316279E-2,-5.2693732E-2,2.708817E-2,2.3928251E-2,-6.019655E-2,-5.949414E-3,3.828838E-2,-5.9997533E-2,-2.7925386E-3,4.6833266E-2,-0E0,-0E0,-4.9284868E-2,-1.9176574E-4,-2.7187452E-2,7.2816378E-3,6.335012E-2,1.3290762E-2,5.679003E-2,-2.3216035E-2,4.297232E-2,-1.6371518E-2,4.403231E-2,-4.9180966E-3,3.6198925E-2,5.594178E-3,7.278828E-2,-1.4837729E-2,5.548923E-2,-1.746964E-2,6.409739E-2,-5.799867E-2,3.2658547E-2],"categories":[],"categories_nodes":[],"categories_segments":[],"categories_sizes":[],"default_left":[0,0,0,0,0,0,0,0,0,0,0,0,0,0,0,0,0,0,0,0,0,0,0,0,0,0,0,0,0,0,0,0,0,0,0,0,0,0,0,0,0,0,0,0,0,0,0,0,0,0,0,0,0,0,0,0,0,0,0,0,0,0,0,0,0,0,0,0,0,0,0,0,0,0,0,0,0,0,0,0,0,0,0,0,0,0,0,0,0,0,0,0,0,0,0],"id":12,"left_children":[1,3,5,7,9,11,13,15,17,19,21,23,25,27,29,-1,-1,31,-1,33,35,37,39,41,43,45,47,49,51,53,55,-1,-1,57,59,61,-1,63,65,67,69,71,73,75,77,-1,-1,79,81,83,85,87,89,91,93,-1,-1,-1,-1,-1,-1,-1,-1,-1,-1,-1,-1,-1,-1,-1,-1,-1,-1,-1,-1,-1,-1,-1,-1,-1,-1,-1,-1,-1,-1,-1,-1,-1,-1,-1,-1,-1,-1,-1,-1],"loss_changes":[2.1367776E2,2.8178543E1,7.2509186E1,3.1323242E0,7.0708694E0,8.742783E0,1.0958206E1,2.09864E0,9.6343994E-1,3.555725E0,6.442088E0,5.888399E0,7.0449142E0,4.757492E0,2.9846268E0,0E0,0E0,2.7643585E-1,0E0,4.8760834E0,2.2085896E0,6.3002644E0,7.67274E0,4.727728E0,5.0881963E0,3.7347984E-1,6.0887537E0,5.181061E0,4.5827374E0,5.2117476E0,1.1570587E0,0E0,0E0,8.310251E0,2.8818817E0,2.4300447E0,0E0,4.685856E0,5.4378667E0,4.8699913E0,2.9333482E0,4.654256E-1,1.5863876E0,4.892953E0,6.266702E0,0E0,0E0,4.3932714E0,6.499409E0,4.021324E0,5.78426E0,3.5455446E0,6.0448937E0,2.4084992E0,2.9972954E0,0E0,0E0,0E0,0E0,0E0,0E0,0E0,0E0,0E0,0E0,0E0,0E0,0E0,0E0,0E0,0E0,0E0,0E0,0E0,0E0,0E0,0E0,0E0,0E0,0E0,0E0,0E0,0E0,0E0,0E0,0E0,0E0,0E0,0E0,0E0,0E0,0E0,0E0,0E0,0E0],"parents":[2147483647,0,0,1,1,2,2,3,3,4,4,5,5,6,6,7,7,8,8,9,9,10,10,11,11,12,12,13,13,14,14,17,17,19,19,20,20,21,21,22,22,23,23,24,24,25,25,26,26,27,27,28,28,29,29,30,30,33,33,34,34,35,35,37,37,38,38,39,39,40,40,41,41,42,42,43,43,44,44,47,47,48,48,49,49,50,50,51,51,52,52,53,53,54,54],"right_children":[2,4,6,8,10,12,14,16,18,20,22,24,26,28,30,-1,-1,32,-1,34,36,38,40,42,44,46,48,50,52,54,56,-1,-1,58,60,62,-1,64,66,68,70,72,74,76,78,-1,-1,80,82,84,86,88,90,92,94,-1,-1,-1,-1,-1,-1,-1,-1,-1,-1,-1,-1,-1,-1,-1,-1,-1,-1,-1,-1,-1,-1,-1,-1,-1,-1,-1,-1,-1,-1,-1,-1,-1,-1,-1,-1,-1,-1,-1,-1],"split_conditions":[6.21041E0,5.0098057E0,7.7101045E0,2.660624E-1,6.630673E-2,7.2958117E0,8.727284E0,4.6686144E0,2.858099E-1,1.3668972E0,5.699742E0,5.679353E0,6.4763107E0,8.37763E0,-1.1011761E0,7.1079633E-3,-4.0378265E-2,5.104541E0,-8.430223E-2,6.227498E-1,5.036173E0,7.446E-1,5.647706E0,5.7211967E0,1.0308986E1,-8.660254E-1,1E0,8.660254E-1,1.6841091E-1,-1.2908124E0,8.425545E0,-7.9874024E-2,-8.013835E-2,5.600235E0,1E0,4.6540556E0,9.648181E-3,1E0,1E1,5.2769403E0,5.926984E0,7.2658353E0,6.1802235E0,7.815429E0,1.5753609E-1,1.1767266E-2,4.730856E-2,1E0,6.6911316E-1,2.3845035E-1,8.047436E0,6.38016E-1,9.1763525E0,7.922841E0,9.270841E0,-4.2701834E-3,6.949908E-2,-5.2693315E-2,-1.931207E-2,-3.4426596E-2,-2.1101795E-2,8.469799E-3,-1.1395901E-1,-5.4344013E-2,1.7143786E-2,3.4214172E-3,-6.6511884E-2,-7.939119E-3,1.474914E-2,-3.0369682E-2,-2.1730578E-3,4.991833E-3,-3.0640427E-2,-2.4773391E-2,-6.000285E-2,-1.878874E-4,-1.4033698E-2,2.8741409E-3,1.9644262E-2,9.724619E-3,3.729905E-2,-8.265272E-3,5.1425062E-2,-2.5357408E-2,3.6330555E-2,-7.4814153E-3,3.530556E-2,3.3667825E-2,6.585244E-2,-1.013211E-2,5.0216444E-2,-1.9055178E-2,6.145662E-2,-1.1465565E-2,9.62943E-2],"split_indices":[6,6,6,8,10,6,5,3,16,9,6,0,1,5,9,0,0,5,0,15,2,15,0,1,14,13,19,13,16,9,4,0,0,3,29,2,0,23,11,0,6,3,2,1,10,0,0,17,9,8,1,8,3,0,1,0,0,0,0,0,0,0,0,0,0,0,0,0,0,0,0,0,0,0,0,0,0,0,0,0,0,0,0,0,0,0,0,0,0,0,0,0,0,0,0],"split_type":[0,0,0,0,0,0,0,0,0,0,0,0,0,0,0,0,0,0,0,0,0,0,0,0,0,0,0,0,0,0,0,0,0,0,0,0,0,0,0,0,0,0,0,0,0,0,0,0,0,0,0,0,0,0,0,0,0,0,0,0,0,0,0,0,0,0,0,0,0,0,0,0,0,0,0,0,0,0,0,0,0,0,0,0,0,0,0,0,0,0,0,0,0,0,0],"sum_hessian":[2.758E3,7.3225757E2,2.0257424E3,1.4037193E2,5.918856E2,1.378676E3,6.470664E2,5.8031554E0,1.3456877E2,3.8573505E2,2.061506E2,9.3687714E2,4.4179892E2,5.056693E2,1.4139706E2,2.5125136E0,3.2906418E0,1.3242644E2,2.1423285E0,3.75147E2,1.0588031E1,1.0141491E2,1.0473569E2,4.741491E1,8.894622E2,1.6683134E1,4.2511578E2,4.191271E2,8.654222E1,2.4309576E1,1.1708749E2,1.2931033E2,3.1161044E0,1.9990686E2,1.7524016E2,6.601741E0,3.9862895E0,7.382873E1,2.758618E1,7.238292E1,3.2352776E1,5.1545157E0,4.226039E1,7.7949774E2,1.0996452E2,2.5922742E0,1.4090859E1,3.5024515E2,7.487062E1,3.176358E2,1.01491295E2,2.7547335E1,5.8994884E1,1.6568443E1,7.741132E0,1.6313384E0,1.1545615E2,9.425104E1,1.0565582E2,1.4501283E2,3.0227312E1,2.0559304E0,4.5458107E0,6.970783E1,4.120892E0,2.143482E1,6.15136E0,3.9864525E1,3.251839E1,1.7416214E1,1.4936562E1,3.5636563E0,1.5908597E0,7.5390644E0,3.472133E1,7.2422034E2,5.5277367E1,9.191001E1,1.8054516E1,3.3151413E2,1.8731012E1,6.2984985E1,1.1885636E1,6.534059E0,3.1110175E2,4.4482372E1,5.7008923E1,1.4946464E1,1.260087E1,4.916692E1,9.827965E0,1.2947769E0,1.5273667E1,5.570294E0,2.1708379E0],"tree_param":{"num_deleted":"0","num_feature":"35","num_nodes":"95","size_leaf_vector":"1"}},{"base_weights":[-5.549822E-3,-4.0793064E-1,1.7103301E-1,-8.502633E-1,-3.163508E-1,5.062413E-2,4.1739392E-1,-1.5440957E-2,-8.807111E-1,-3.306339E-1,2.6255158E-1,-1.3296646E-3,1.4451252E-1,3.5554206E-1,6.63127E-1,3.6958564E-2,-4.4650793E-2,-8.9153886E-1,-0E0,-3.5918784E-1,-6.962964E-3,4.9647954E-1,-3.84095E-2,-1.821788E-2,3.2934755E-1,1.944674E-1,-8.593512E-2,-4.8222914E-2,3.7874654E-1,-0E0,6.9136375E-1,-7.994455E-2,-1.1584139E-2,-4.1836414E-1,-2.225765E-1,3.6089393E-1,-3.7082535E-1,-1.4409336E-1,6.784128E-2,2.1062513E-1,-4.5572545E-2,5.0396377E-1,-0E0,4.9229303E-1,1.4371979E-1,-5.007724E-1,8.5518174E-2,2.0250432E-1,-5.129025E-1,5.3276706E-1,2.92081E-1,2.8347308E-2,-3.5333905E-2,-1.3497627E-2,7.076873E-1,-3.8992643E-2,1.4875189E-2,-2.6677625E-2,1.9264035E-2,-1.4908025E-2,6.1212633E-2,4.5092084E-2,-4.7094405E-2,-0E0,-2.325491E-2,3.9301505E-3,6.064593E-2,2.608311E-2,-5.876921E-3,-0E0,5.7486854E-2,-3.8645636E-2,2.8190646E-2,6.1256904E-2,-1.1027321E-2,-1.9629776E-2,1.7334461E-2,1.7854935E-2,-5.9494756E-2,2.2720983E-2,-2.2094557E-2,-4.2042397E-3,5.840863E-2,-6.0251065E-2,-0E0,5.4338925E-2,1.0269061E-2,3.025236E-2,-2.0874191E-2,2.5792632E-2,6.8104304E-2],"categories":[],"categories_nodes":[],"categories_segments":[],"categories_sizes":[],"default_left":[0,0,0,0,0,0,0,0,0,0,0,0,0,0,0,0,0,0,0,0,0,0,0,0,0,0,0,0,0,0,0,0,0,0,0,0,0,0,0,0,0,0,0,0,0,0,0,0,0,0,0,0,0,0,0,0,0,0,0,0,0,0,0,0,0,0,0,0,0,0,0,0,0,0,0,0,0,0,0,0,0,0,0,0,0,0,0,0,0,0,0],"id":13,"left_children":[1,3,5,7,9,11,13,15,17,19,21,23,25,27,29,-1,-1,31,-1,33,35,37,-1,39,41,43,45,47,49,51,53,-1,-1,55,57,59,61,63,-1,65,67,69,71,73,75,77,79,81,83,85,87,-1,-1,-1,89,-1,-1,-1,-1,-1,-1,-1,-1,-1,-1,-1,-1,-1,-1,-1,-1,-1,-1,-1,-1,-1,-1,-1,-1,-1,-1,-1,-1,-1,-1,-1,-1,-1,-1,-1,-1],"loss_changes":[1.963935E2,3.28808E1,5.655778E1,3.0005417E0,6.0260544E0,6.3996887E0,8.414925E0,2.09864E0,9.165268E-1,6.113861E0,3.2085714E0,4.439086E0,5.456727E0,5.010666E0,2.6271896E0,0E0,0E0,2.2799683E-1,0E0,4.4947586E0,8.245457E0,3.0836017E0,0E0,4.8734865E0,2.4834538E0,5.2647705E0,6.176322E0,3.639945E0,5.5897903E0,1.0755093E0,2.193699E0,0E0,0E0,5.9002686E0,7.0356426E0,5.7646646E0,5.0441723E0,1.3566792E-1,0E0,5.958914E0,4.9230266E0,2.1366172E0,2.3054266E0,7.103649E0,6.406033E0,3.6137042E0,3.4754007E0,2.57673E0,8.012755E-1,5.0543594E0,8.465721E0,0E0,0E0,0E0,1.8422203E0,0E0,0E0,0E0,0E0,0E0,0E0,0E0,0E0,0E0,0E0,0E0,0E0,0E0,0E0,0E0,0E0,0E0,0E0,0E0,0E0,0E0,0E0,0E0,0E0,0E0,0E0,0E0,0E0,0E0,0E0,0E0,0E0,0E0,0E0,0E0,0E0],"parents":[2147483647,0,0,1,1,2,2,3,3,4,4,5,5,6,6,7,7,8,8,9,9,10,10,11,11,12,12,13,13,14,14,17,17,19,19,20,20,21,21,23,23,24,24,25,25,26,26,27,27,28,28,29,29,30,30,33,33,34,34,35,35,36,36,37,37,39,39,40,40,41,41,42,42,43,43,44,44,45,45,46,46,47,47,48,48,49,49,50,50,54,54],"right_children":[2,4,6,8,10,12,14,16,18,20,22,24,26,28,30,-1,-1,32,-1,34,36,38,-1,40,42,44,46,48,50,52,54,-1,-1,56,58,60,62,64,-1,66,68,70,72,74,76,78,80,82,84,86,88,-1,-1,-1,90,-1,-1,-1,-1,-1,-1,-1,-1,-1,-1,-1,-1,-1,-1,-1,-1,-1,-1,-1,-1,-1,-1,-1,-1,-1,-1,-1,-1,-1,-1,-1,-1,-1,-1,-1,-1],"split_conditions":[6.416052E0,5.0098057E0,7.744181E0,2.660624E-1,1.8141972E0,7.2958117E0,8.83193E0,4.6686144E0,2.858099E-1,1E0,1.2E1,1.1002116E1,1E0,3.5770106E-1,7.0992935E-1,6.4784624E-3,-3.6802154E-2,5.104541E0,-7.683594E-2,7.8877196E-2,6.959643E-1,5.3084164E0,-4.6571918E-2,6.3812404E0,7.451352E0,7.362784E0,6.875822E-1,3.3145756E-1,-4.0034255E-1,8.966595E0,8.489943E0,-7.279993E-2,-7.304086E-2,1.3668972E0,1E0,-5E-1,4.9106674E0,4.892302E0,8.476049E-3,7.162568E0,-1.5011212E0,-6.043249E-1,7.7073503E0,8.660254E-1,6.838266E0,6.2453395E-1,8.008419E0,7.8189974E0,7.6290536E-1,1.1E1,2.4491888E-1,3.3298174E-3,-1.7367527E-2,-5.494936E-3,8.592508E0,-3.4754567E-2,7.719685E-3,-2.2676181E-2,6.4982264E-3,-5.3364835E-3,5.947487E-3,5.0641842E-2,-5.6393966E-2,2.7395918E-3,-2.7589506E-2,1.619151E-3,2.0228028E-2,2.2997266E-2,-4.047666E-3,-6.528633E-3,4.178343E-2,-5.7495486E-2,4.7909513E-2,3.3769052E-2,-5.645026E-3,-1.1944174E-2,1.118515E-2,8.277688E-3,-8.749919E-3,1.5341181E-2,-1.6317824E-2,-1.4605046E-2,4.710167E-2,-2.8378304E-2,-1.3020356E-3,4.057726E-2,9.603879E-3,3.1670112E-2,-9.358938E-3,5.8603384E-2,6.374725E-2],"split_indices":[5,6,6,8,9,6,5,3,16,19,11,14,19,8,15,0,0,5,0,10,15,0,0,7,1,6,15,8,9,2,6,0,0,9,26,13,3,0,0,3,9,9,1,13,2,15,3,3,15,11,16,0,0,0,0,0,0,0,0,0,0,0,0,0,0,0,0,0,0,0,0,0,0,0,0,0,0,0,0,0,0,0,0,0,0,0,0,0,0,0,0],"split_type":[0,0,0,0,0,0,0,0,0,0,0,0,0,0,0,0,0,0,0,0,0,0,0,0,0,0,0,0,0,0,0,0,0,0,0,0,0,0,0,0,0,0,0,0,0,0,0,0,0,0,0,0,0,0,0,0,0,0,0,0,0,0,0,0,0,0,0,0,0,0,0,0,0,0,0,0,0,0,0,0,0,0,0,0,0,0,0,0,0,0,0],"sum_hessian":[2.758E3,8.4155145E2,1.9164485E3,1.4037193E2,7.0117957E2,1.2906458E3,6.2580286E2,5.8031554E0,1.3456877E2,6.8621423E2,1.4965288E1,8.2758325E2,4.6306247E2,5.0587497E2,1.1992786E2,2.5125136E0,3.2906418E0,1.3242644E2,2.1423285E0,6.285199E2,5.769434E1,1.23242655E1,2.641023E0,7.910011E2,3.6582153E1,3.8316278E2,7.989967E1,2.5836887E1,4.800381E2,4.2541895E0,1.1567367E2,1.2931033E2,3.1161044E0,4.324098E2,1.9611012E2,2.779728E1,2.9897062E1,3.1919477E0,9.132318E0,8.05049E1,7.104962E2,2.4296083E1,1.2286072E1,5.1449074E1,3.317137E2,2.3405224E1,5.649445E1,1.6568335E1,9.268553E0,1.66537E2,3.135011E2,1.877258E0,2.3769314E0,1.1241567E0,1.1454951E2,4.1838367E2,1.4026115E1,1.6816528E2,2.7944832E1,1.0278455E1,1.7518826E1,3.3436344E0,2.6553427E1,1.6115342E0,1.5804136E0,6.219619E1,1.8308704E1,3.7632317E1,6.728639E2,5.34494E0,1.8951143E1,5.5866156E0,6.6994557E0,3.951186E1,1.1937214E1,3.8969643E1,2.9274408E2,3.7603917E0,1.964483E1,3.9001087E1,1.7493362E1,1.0896083E1,5.672252E0,6.1669207E0,3.101632E0,1.3741545E2,2.9121546E1,2.883824E2,2.5118715E1,1.7496626E1,9.705289E1],"tree_param":{"num_deleted":"0","num_feature":"35","num_nodes":"91","size_leaf_vector":"1"}},{"base_weights":[-2.2380885E-3,-4.158235E-1,1.4123729E-1,-7.776089E-1,-3.2328713E-1,3.5458434E-2,3.7391126E-1,-1.5440957E-2,-8.049678E-1,-3.5652494E-1,1.5557173E-2,-5.385675E-2,1.04000755E-1,2.5465533E-1,4.8041186E-1,3.6958564E-2,-4.4650793E-2,-8.145879E-1,-0E0,-2.4498464E-1,-4.495427E-1,-2.4313237E-1,5.2009743E-1,-3.061083E-1,-9.959385E-3,4.634123E-2,3.3921415E-1,-1.4001843E-1,2.9015967E-1,5.0541276E-1,-2.5824806E-1,-7.296753E-2,-1.1584139E-2,-4.2036897E-1,-5.6684796E-2,-3.385869E-1,-7.145815E-1,3.2426846E-1,-4.9254072E-1,-1.572948E-2,6.2521446E-1,-5.0839585E-1,5.557849E-4,1.7952738E-2,-4.8575154E-1,7.4867465E-2,-4.5899725E-1,3.896478E-1,-5.080149E-1,3.684641E-1,-3.3944035E-1,3.564899E-1,-0E0,3.9220032E-1,6.31336E-1,-5.441872E-1,3.153565E-2,-1.2854571E-2,-5.9604056E-2,3.1430537E-3,-3.9885893E-2,-5.394694E-2,-1.8112263E-2,-2.7643366E-2,-7.54327E-2,5.837579E-2,-1.433073E-2,-6.0474087E-2,2.143459E-2,6.605522E-2,-1.570429E-2,-5.1796433E-2,1.9803653E-2,-3.8884923E-2,1.9956574E-2,-2.088728E-3,2.8762363E-2,-5.6539163E-2,5.9375484E-3,2.025501E-2,1.5340031E-4,-0E0,-5.4879844E-2,-3.7738916E-2,3.8733654E-2,-5.70315E-2,-0E0,-0E0,4.4617813E-2,-4.259162E-2,2.892687E-2,-0E0,3.5508707E-2,2.2278743E-2,-3.5497643E-2,4.0550314E-2,-4.871296E-3,2.2885323E-2,6.1307672E-2,-5.6296885E-2,-0E0],"categories":[],"categories_nodes":[],"categories_segments":[],"categories_sizes":[],"default_left":[0,0,0,0,0,0,0,0,0,0,0,0,0,0,0,0,0,0,0,0,0,0,0,0,0,0,0,0,0,0,0,0,0,0,0,0,0,0,0,0,0,0,0,0,0,0,0,0,0,0,0,0,0,0,0,0,0,0,0,0,0,0,0,0,0,0,0,0,0,0,0,0,0,0,0,0,0,0,0,0,0,0,0,0,0,0,0,0,0,0,0,0,0,0,0,0,0,0,0,0,0],"id":14,"left_children":[1,3,5,7,9,11,13,15,17,19,21,23,25,27,29,-1,-1,31,-1,33,35,37,39,41,43,45,47,49,51,53,55,-1,-1,57,59,61,63,65,67,-1,69,71,73,75,77,79,81,83,85,87,89,91,93,95,97,99,-1,-1,-1,-1,-1,-1,-1,-1,-1,-1,-1,-1,-1,-1,-1,-1,-1,-1,-1,-1,-1,-1,-1,-1,-1,-1,-1,-1,-1,-1,-1,-1,-1,-1,-1,-1,-1,-1,-1,-1,-1,-1,-1,-1,-1],"loss_changes":[1.6406659E2,2.2643402E1,5.0143227E1,2.402893E0,6.67902E0,8.693608E0,7.3872375E0,2.09864E0,7.051239E-1,4.7549973E0,7.1074553E0,6.5471706E0,1.0623316E1,4.4955025E0,6.547867E0,0E0,0E0,1.6937256E-2,0E0,7.7384415E0,7.0612183E0,5.2716117E0,1.8899455E0,5.807619E0,7.2880015E0,9.189151E0,6.9605427E0,2.7780428E0,5.641245E0,3.4491425E0,2.4805717E0,0E0,0E0,7.9537773E0,4.7419567E0,6.5688496E0,3.0812416E0,2.2957683E0,4.158347E0,0E0,2.3343449E0,3.5371323E0,3.577415E0,6.5315905E0,3.0265517E0,6.806487E0,2.720872E0,6.158926E0,7.2901535E-1,3.606689E-1,2.2929046E0,3.4850216E0,5.6743135E0,5.534565E0,2.364128E0,1.4694381E-1,0E0,0E0,0E0,0E0,0E0,0E0,0E0,0E0,0E0,0E0,0E0,0E0,0E0,0E0,0E0,0E0,0E0,0E0,0E0,0E0,0E0,0E0,0E0,0E0,0E0,0E0,0E0,0E0,0E0,0E0,0E0,0E0,0E0,0E0,0E0,0E0,0E0,0E0,0E0,0E0,0E0,0E0,0E0,0E0,0E0],"parents":[2147483647,0,0,1,1,2,2,3,3,4,4,5,5,6,6,7,7,8,8,9,9,10,10,11,11,12,12,13,13,14,14,17,17,19,19,20,20,21,21,22,22,23,23,24,24,25,25,26,26,27,27,28,28,29,29,30,30,33,33,34,34,35,35,36,36,37,37,38,38,40,40,41,41,42,42,43,43,44,44,45,45,46,46,47,47,48,48,49,49,50,50,51,51,52,52,53,53,54,54,55,55],"right_children":[2,4,6,8,10,12,14,16,18,20,22,24,26,28,30,-1,-1,32,-1,34,36,38,40,42,44,46,48,50,52,54,56,-1,-1,58,60,62,64,66,68,-1,70,72,74,76,78,80,82,84,86,88,90,92,94,96,98,100,-1,-1,-1,-1,-1,-1,-1,-1,-1,-1,-1,-1,-1,-1,-1,-1,-1,-1,-1,-1,-1,-1,-1,-1,-1,-1,-1,-1,-1,-1,-1,-1,-1,-1,-1,-1,-1,-1,-1,-1,-1,-1,-1,-1,-1],"split_conditions":[6.158486E0,5.0098057E0,7.730342E0,2.660624E-1,1E0,6.9382067E0,1.1002116E1,4.6686144E0,2.858099E-1,-2.4492937E-16,6.0131283E0,-1.2987417E-1,3.164569E-1,3.626743E-1,3.3777887E-1,5.9047067E-3,-3.3542737E-2,5.104541E0,-7.00309E-2,4.6958732E-3,5.147542E-1,5.481911E0,4.528397E0,1E0,8.8419026E-1,2.9537228E-1,8.444769E0,7.9022045E0,1.1E1,7.9274213E-1,3.9007527E-1,-6.635234E-2,-6.6571936E-2,1.5275043E-1,6.3251653E0,5.520529E0,5.2329187E0,5.0153575E0,9.615872E0,-8.494474E-2,7.6252836E-1,7.157468E-1,4E0,1.5444337E0,7.958549E-1,5E0,6.9891787E0,3.0589432E-1,2.0277952E-1,7.830275E-1,8.439999E0,7.696507E0,2.9021627E-1,7.3593456E-1,-2.498934E-1,7.920379E-1,7.909363E-2,-3.4006733E-2,-4.5822524E-2,2.9870254E-4,-4.5439947E-2,-4.414074E-2,-1.9706428E-2,-2.5068123E-2,-4.1222807E-2,3.4627154E-2,-2.6071245E-2,-5.581455E-2,2.2753464E-2,1.6350301E-2,-5.397377E-2,-2.0899463E-2,2.7969124E-2,-5.8285043E-2,7.1572894E-3,-1.5387425E-3,8.584498E-3,-3.6746114E-2,3.1032884E-3,1.0784627E-2,5.1395586E-5,3.3316292E-2,-1.5419985E-2,-2.3708738E-2,2.483851E-2,-1.9005936E-2,8.11486E-2,-1.3311542E-2,4.177076E-2,-2.1818124E-2,4.62165E-2,1.27831E-2,2.4456063E-2,2.8865231E-2,-2.2748226E-2,4.500982E-2,-1.4373449E-3,1.5146368E-2,5.6177065E-2,-8.530063E-3,-1.6885245E-2],"split_indices":[6,6,6,8,12,2,14,3,16,12,3,10,9,8,16,0,0,5,0,9,9,4,0,29,15,16,1,6,11,15,16,0,0,16,1,6,4,3,14,0,15,15,11,9,8,11,7,8,16,15,0,5,9,9,9,15,0,0,0,0,0,0,0,0,0,0,0,0,0,0,0,0,0,0,0,0,0,0,0,0,0,0,0,0,0,0,0,0,0,0,0,0,0,0,0,0,0,0,0,0,0],"split_type":[0,0,0,0,0,0,0,0,0,0,0,0,0,0,0,0,0,0,0,0,0,0,0,0,0,0,0,0,0,0,0,0,0,0,0,0,0,0,0,0,0,0,0,0,0,0,0,0,0,0,0,0,0,0,0,0,0,0,0,0,0,0,0,0,0,0,0,0,0,0,0,0,0,0,0,0,0,0,0,0,0,0,0,0,0,0,0,0,0,0,0,0,0,0,0,0,0,0,0,0,0],"sum_hessian":[2.758E3,7.1058356E2,2.0474164E3,1.4037193E2,5.702117E2,1.4109993E3,6.364172E2,5.8031554E0,1.3456877E2,5.2095374E2,4.925789E1,6.086678E2,8.023314E2,3.0623483E2,3.3018237E2,2.5125136E0,3.2906418E0,1.3242644E2,2.1423285E0,2.432999E2,2.7765387E2,3.2360283E1,1.6897606E1,8.6288246E1,5.223795E2,6.484764E2,1.5385506E2,2.3274647E1,2.8296017E2,3.208248E2,9.357562E0,1.2931033E2,3.1161044E0,1.2292742E2,1.2037247E2,2.0056845E2,7.708542E1,8.897715E0,2.3462568E1,1.2177367E0,1.567987E1,5.2521545E1,3.3766705E1,4.9387888E2,2.8500652E1,6.1661597E2,3.1860392E1,1.4692851E2,6.926551E0,5.1652884E0,1.8109358E1,2.3119662E2,5.1763546E1,1.7587465E2,1.4495016E2,7.2674646E0,2.090098E0,6.153395E1,6.139347E1,9.76025E1,2.2769968E1,6.257062E1,1.3799782E2,2.2418282E1,5.4667137E1,5.6639824E0,3.2337322E0,1.9455605E1,4.006964E0,1.4463221E1,1.2166486E0,4.8721546E1,3.8E0,9.81012E0,2.3956583E1,4.3466617E2,5.921273E1,2.3033514E1,5.4671383E0,1.944654E2,4.221506E2,8.163765E0,2.3696627E1,6.5075083E0,1.40421E2,5.340261E0,1.5862894E0,1.8785636E0,3.2867246E0,1.6195103E1,1.9142547E0,2.7137106E1,2.0405952E2,3.1564854E1,2.0198694E1,1.5460359E2,2.1271055E1,2.3284113E1,1.2166605E2,5.174755E0,2.0927095E0],"tree_param":{"num_deleted":"0","num_feature":"35","num_nodes":"101","size_leaf_vector":"1"}},{"base_weights":[-4.7672093E-3,-3.1825164E-1,1.5663283E-1,-7.1884245E-1,-2.4537496E-1,6.6566974E-2,3.7993887E-1,-7.4605274E-1,1.15561746E-1,-2.1635348E-1,-5.769352E-1,5.377456E-2,4.8889193E-1,-2.4884194E-1,4.0593052E-1,-4.4628268E-1,-8.424028E-1,-1.2746622E-2,3.5331216E-2,-3.215731E-1,-1.02330774E-1,-6.526598E-1,4.0221013E-2,6.7592725E-2,-2.9736522E-1,7.047045E-1,-1.2499691E-1,3.9507315E-2,-4.3778518E-1,-0E0,4.3016347E-1,3.125653E-2,-6.9119734E-1,-0E0,-8.563046E-1,-3.6256447E-1,9.112361E-2,5.8723193E-1,-1.5196733E-1,-7.240986E-1,2.253307E-1,5.52114E-2,5.128593E-1,-4.6695104E-1,2.1625651E-1,6.17065E-2,7.775318E-2,-4.9697287E-2,2.1263884E-1,-6.8075734E-1,1.9506846E-1,-5.986379E-2,2.2174437E-1,1.6044737E-1,4.7060952E-1,-3.5486042E-2,4.5402374E-2,-1.8831002E-2,-7.61186E-2,-7.749001E-2,-2.6619944E-6,-3.349101E-2,3.5325173E-2,-1.11756725E-2,6.5078065E-2,-5.0657024E-3,6.324117E-2,-1.5491973E-2,6.1776493E-2,-7.045048E-2,1.484624E-2,2.7364222E-2,-0E0,6.0310266E-3,-2.5219653E-2,7.001958E-2,-0E0,-4.7297575E-2,2.3613308E-2,-4.720727E-3,5.176268E-2,5.031128E-2,-4.0684663E-2,4.4171464E-2,-1.574458E-2,-0E0,-7.025006E-2,-1.1141751E-2,4.0269773E-2,-3.7000246E-2,3.2334477E-2,-3.4642622E-3,5.9824917E-2,5.2906588E-2,3.428057E-2],"categories":[],"categories_nodes":[],"categories_segments":[],"categories_sizes":[],"default_left":[0,0,0,0,0,0,0,0,0,0,0,0,0,0,0,0,0,0,0,0,0,0,0,0,0,0,0,0,0,0,0,0,0,0,0,0,0,0,0,0,0,0,0,0,0,0,0,0,0,0,0,0,0,0,0,0,0,0,0,0,0,0,0,0,0,0,0,0,0,0,0,0,0,0,0,0,0,0,0,0,0,0,0,0,0,0,0,0,0,0,0,0,0,0,0],"id":15,"left_children":[1,3,5,7,9,11,13,15,17,19,21,23,25,27,29,31,33,-1,-1,35,37,39,-1,41,43,45,47,-1,49,51,53,55,57,-1,59,61,63,65,67,69,71,73,75,77,79,81,-1,-1,83,85,87,-1,89,91,93,-1,-1,-1,-1,-1,-1,-1,-1,-1,-1,-1,-1,-1,-1,-1,-1,-1,-1,-1,-1,-1,-1,-1,-1,-1,-1,-1,-1,-1,-1,-1,-1,-1,-1,-1,-1,-1,-1,-1,-1],"loss_changes":[1.3984515E2,2.6467926E1,3.6297813E1,3.8125763E0,6.9313316E0,6.629432E0,8.814667E0,2.43544E0,6.758651E-1,8.53809E0,5.494955E0,6.0400677E0,5.393568E0,3.1123743E0,4.9764557E0,5.1003356E0,1.2745132E0,0E0,0E0,6.6891136E0,1.2244646E1,4.3167667E0,0E0,6.3157487E0,4.4158072E0,2.4088364E0,1.9840611E0,0E0,3.364317E0,4.8274612E0,4.6100693E0,3.4512117E0,1.1256628E0,0E0,1.0149536E0,4.412655E0,5.4084496E0,2.4528284E0,6.506468E0,4.190592E0,9.435198E-2,5.1247106E0,4.578681E0,2.2512107E0,1.5923555E0,2.9106083E0,0E0,0E0,1.0954462E0,1.255621E0,8.083761E-1,0E0,2.4561956E0,7.3433084E0,3.2380447E0,0E0,0E0,0E0,0E0,0E0,0E0,0E0,0E0,0E0,0E0,0E0,0E0,0E0,0E0,0E0,0E0,0E0,0E0,0E0,0E0,0E0,0E0,0E0,0E0,0E0,0E0,0E0,0E0,0E0,0E0,0E0,0E0,0E0,0E0,0E0,0E0,0E0,0E0,0E0,0E0],"parents":[2147483647,0,0,1,1,2,2,3,3,4,4,5,5,6,6,7,7,8,8,9,9,10,10,11,11,12,12,13,13,14,14,15,15,16,16,19,19,20,20,21,21,23,23,24,24,25,25,26,26,28,28,29,29,30,30,31,31,32,32,34,34,35,35,36,36,37,37,38,38,39,39,40,40,41,41,42,42,43,43,44,44,45,45,48,48,49,49,50,50,52,52,53,53,54,54],"right_children":[2,4,6,8,10,12,14,16,18,20,22,24,26,28,30,32,34,-1,-1,36,38,40,-1,42,44,46,48,-1,50,52,54,56,58,-1,60,62,64,66,68,70,72,74,76,78,80,82,-1,-1,84,86,88,-1,90,92,94,-1,-1,-1,-1,-1,-1,-1,-1,-1,-1,-1,-1,-1,-1,-1,-1,-1,-1,-1,-1,-1,-1,-1,-1,-1,-1,-1,-1,-1,-1,-1,-1,-1,-1,-1,-1,-1,-1,-1,-1],"split_conditions":[6.5745606E0,5.0098057E0,8.026236E0,5.449793E0,2.4674672E-1,8.549029E0,6.738662E0,-5E-1,5.036173E0,5.8938394E0,6.7524962E0,3.055021E-1,8.5754466E-1,7.711262E0,7.115225E0,1.3618685E-1,-2.5689903E-1,-9.936452E-2,2.5602772E-3,1E0,5.6197653E0,3.0092484E-1,5.3741075E-2,8.621576E0,7.983294E-1,7.6838384E0,7.9734883E0,4.887277E-2,8.660254E-1,-1.3747211E-1,4.420018E-1,4.632299E0,4.6068687E0,1.964857E-3,5.526886E0,8.418609E-1,6.3064575E0,1.16767995E-1,1.8141972E0,7.147457E0,7.943472E-1,7.9654346E0,7.780044E0,7.7406645E0,2.5630352E-1,7.636423E0,3.3575676E-2,-8.594845E-3,7.6156583E0,-1.5011212E0,8.100783E0,-2.530728E-2,7.555617E0,5.6597386E-2,8.322834E0,-3.0237244E-2,5.3817555E-3,-4.706687E-2,-6.910814E-2,-6.3510165E-2,-2.2480397E-2,-3.0994916E-2,2.4705357E-3,-3.5898697E-2,1.49022285E-2,-3.6289297E-2,8.060998E-3,-1.2096503E-2,7.824208E-3,-5.0849028E-2,6.95952E-3,8.37085E-3,6.640124E-3,3.963626E-3,-1.5057724E-2,6.640196E-2,-9.590746E-4,-1.5715098E-2,7.396163E-2,-4.1991924E-3,2.8578438E-2,3.7864525E-2,-2.0702792E-2,5.109051E-2,-1.4205622E-2,1.7322805E-2,-1.4524553E-2,-5.5380117E-2,9.09038E-2,-3.6088526E-2,4.276814E-2,-1.7158609E-4,5.6700777E-2,3.7670895E-2,3.3803474E-2],"split_indices":[5,6,7,7,16,2,3,12,2,6,6,16,8,0,2,16,10,0,0,12,4,10,0,1,15,5,5,0,13,10,8,0,5,0,2,15,3,16,9,0,9,7,0,0,9,5,0,0,1,9,0,0,6,9,7,0,0,0,0,0,0,0,0,0,0,0,0,0,0,0,0,0,0,0,0,0,0,0,0,0,0,0,0,0,0,0,0,0,0,0,0,0,0,0,0],"split_type":[0,0,0,0,0,0,0,0,0,0,0,0,0,0,0,0,0,0,0,0,0,0,0,0,0,0,0,0,0,0,0,0,0,0,0,0,0,0,0,0,0,0,0,0,0,0,0,0,0,0,0,0,0,0,0,0,0,0,0,0,0,0,0,0,0,0,0,0,0,0,0,0,0,0,0,0,0,0,0,0,0,0,0,0,0,0,0,0,0,0,0,0,0,0,0],"sum_hessian":[2.758E3,9.381173E2,1.8198827E3,1.4037193E2,7.9774536E2,1.3007195E3,5.191632E2,1.369013E2,3.4706202E0,7.382979E2,5.9447445E1,1.2661039E3,3.461556E1,1.8945702E1,5.0021753E2,3.760566E1,9.929565E1,1.0939064E0,2.3767138E0,3.791397E2,3.591582E2,5.6635147E1,2.812296E0,1.2214705E3,4.4633404E1,2.619445E1,8.42111E0,2.743308E0,1.6202394E1,2.8088793E1,4.7212872E2,1.2407399E1,2.519826E1,1.5218716E0,9.777377E1,3.4654907E2,3.259064E1,2.1822525E1,3.373357E2,5.3380306E1,3.2548423E0,1.1919744E3,2.9496191E1,3.465049E1,9.982916E0,6.9213276E0,1.9273123E1,3.9684439E0,4.452666E0,1.235408E1,3.8483133E0,6.0576715E0,2.203112E1,6.49407E1,4.0718802E2,5.988901E0,6.4184985E0,8.709576E0,1.6488684E1,9.489663E1,2.877149E0,3.4139792E2,5.1511426E0,2.4759739E1,7.830903E0,2.9087052E0,1.8913818E1,3.3070773E2,6.627965E0,5.030185E1,3.078455E0,1.8161044E0,1.4387378E0,1.1518002E3,4.0174103E1,1.8620022E1,1.087617E1,3.305071E1,1.5997825E0,5.68346E0,4.299456E0,4.0631123E0,2.8582153E0,3.2342763E0,1.2183895E0,1.7669206E0,1.058716E1,1.0312296E0,2.8170838E0,2.5161045E0,1.9515017E1,4.7168552E1,1.7772144E1,1.5390979E2,2.5327824E2],"tree_param":{"num_deleted":"0","num_feature":"35","num_nodes":"95","size_leaf_vector":"1"}},{"base_weights":[-1.8685061E-3,-3.572477E-1,1.2136949E-1,-6.859463E-1,-2.7313823E-1,2.89074E-2,3.2462794E-1,-7.123342E-1,1.15561746E-1,-2.8601316E-1,4.094839E-1,-5.0768744E-2,9.014745E-2,2.6585495E-1,5.641192E-1,-1.5440957E-2,-7.3755944E-1,-1.2746622E-2,3.5331216E-2,-2.6159176E-1,-6.386793E-1,5.8507588E-2,-2.2295555E-2,-3.9250648E-1,-1.7695757E-2,3.489446E-2,3.154851E-1,5.5933494E-2,3.2315633E-1,-2.300948E-1,6.20945E-1,3.6958564E-2,-4.4650793E-2,-7.472283E-1,-0E0,-2.8165954E-1,1.006278E-1,-8.312985E-1,-0E0,1.0930631E-2,-2.6894862E-2,-3.0688314E-2,-7.6150787E-1,4.1187327E-2,-2.5521064E-1,1.0344791E-1,-1.10094026E-1,3.965728E-2,4.7793922E-1,-5.3669035E-2,7.342328E-1,4.0001187E-1,1.3923068E-1,-5.4290496E-2,3.142119E-2,2.1926507E-1,7.096016E-1,-6.8254516E-2,-1.6925214E-2,-2.1151632E-2,-4.5332983E-2,4.232755E-2,-3.5223152E-2,-0E0,-7.892559E-2,-4.4331778E-2,3.4042034E-2,1.48103805E-2,-4.643877E-2,-7.7638276E-2,-0E0,6.290273E-3,-4.402776E-2,-7.268855E-3,-4.717409E-2,6.2421234E-3,5.779259E-2,-3.959378E-2,4.333974E-3,-2.406389E-2,1.9458398E-2,-3.0653257E-2,4.8018217E-2,-1.666665E-2,3.0462757E-2,-0E0,7.350975E-2,1.0473682E-2,4.2697527E-2,-1.5716122E-2,2.8587237E-2,4.1155163E-2,-5.102829E-2,-1.3497627E-2,6.4719014E-2],"categories":[],"categories_nodes":[],"categories_segments":[],"categories_sizes":[],"default_left":[0,0,0,0,0,0,0,0,0,0,0,0,0,0,0,0,0,0,0,0,0,0,0,0,0,0,0,0,0,0,0,0,0,0,0,0,0,0,0,0,0,0,0,0,0,0,0,0,0,0,0,0,0,0,0,0,0,0,0,0,0,0,0,0,0,0,0,0,0,0,0,0,0,0,0,0,0,0,0,0,0,0,0,0,0,0,0,0,0,0,0,0,0,0,0],"id":16,"left_children":[1,3,5,7,9,11,13,15,17,19,21,23,25,27,29,31,33,-1,-1,35,37,-1,39,41,43,45,47,49,51,53,55,-1,-1,57,-1,59,61,63,65,-1,-1,67,69,71,73,75,77,79,81,83,85,87,89,-1,-1,91,93,-1,-1,-1,-1,-1,-1,-1,-1,-1,-1,-1,-1,-1,-1,-1,-1,-1,-1,-1,-1,-1,-1,-1,-1,-1,-1,-1,-1,-1,-1,-1,-1,-1,-1,-1,-1,-1,-1],"loss_changes":[1.21113556E2,1.8705284E1,3.826381E1,3.5616684E0,5.173065E0,6.9289765E0,8.148987E0,1.922554E0,6.758651E-1,3.9388962E0,1.5807006E0,6.6175365E0,9.761471E0,5.951355E0,6.0328445E0,2.09864E0,7.8069305E-1,0E0,0E0,4.0420876E0,4.039031E0,0E0,3.8542995E-1,6.3796663E0,8.000164E0,6.482288E0,6.603093E0,9.14557E0,5.253559E0,2.5539882E0,3.1838036E0,0E0,0E0,7.898102E-1,0E0,4.2634087E0,5.6152186E0,1.2160511E0,2.262437E0,0E0,0E0,3.255649E0,1.754281E0,6.9923167E0,4.9789577E0,7.502909E0,1.137819E1,3.5203185E0,5.5922813E0,5.4135346E0,1.2719097E0,6.0087166E0,7.4525585E0,0E0,0E0,5.3103523E0,2.2730293E0,0E0,0E0,0E0,0E0,0E0,0E0,0E0,0E0,0E0,0E0,0E0,0E0,0E0,0E0,0E0,0E0,0E0,0E0,0E0,0E0,0E0,0E0,0E0,0E0,0E0,0E0,0E0,0E0,0E0,0E0,0E0,0E0,0E0,0E0,0E0,0E0,0E0,0E0],"parents":[2147483647,0,0,1,1,2,2,3,3,4,4,5,5,6,6,7,7,8,8,9,9,10,10,11,11,12,12,13,13,14,14,15,15,16,16,19,19,20,20,22,22,23,23,24,24,25,25,26,26,27,27,28,28,29,29,30,30,33,33,35,35,36,36,37,37,38,38,41,41,42,42,43,43,44,44,45,45,46,46,47,47,48,48,49,49,50,50,51,51,52,52,55,55,56,56],"right_children":[2,4,6,8,10,12,14,16,18,20,22,24,26,28,30,32,34,-1,-1,36,38,-1,40,42,44,46,48,50,52,54,56,-1,-1,58,-1,60,62,64,66,-1,-1,68,70,72,74,76,78,80,82,84,86,88,90,-1,-1,92,94,-1,-1,-1,-1,-1,-1,-1,-1,-1,-1,-1,-1,-1,-1,-1,-1,-1,-1,-1,-1,-1,-1,-1,-1,-1,-1,-1,-1,-1,-1,-1,-1,-1,-1,-1,-1,-1,-1],"split_conditions":[6.158486E0,5.0098057E0,7.730342E0,5.449793E0,6.9241896E0,6.9382067E0,8.83193E0,2.660624E-1,5.036173E0,2.4674672E-1,5E-1,-1.6838393E-1,3.164569E-1,5.0777304E-1,7.197071E-1,4.6686144E0,5.104541E0,-9.056422E-2,2.333537E-3,1E0,7.157468E-1,1.3582413E-2,5.5901656E0,-1.9499648E-1,7.569503E-1,4.081165E-2,7.0505476E0,8.4035677E-1,8.386424E0,9.270841E0,8.681048E0,4.905132E-3,-2.4947215E-2,1.3447169E0,-5.5051178E-2,5.9727635E0,6.191237E0,4.721263E0,5.468538E-1,4.3114435E-2,-2.6999407E-2,9.615872E0,1E0,8.8419026E-1,6.4761257E0,2.7857373E-2,8.85389E-2,6.8670373E0,3.0589432E-1,8.464484E0,-8.660254E-1,7.7651315E0,8.564463E0,-1.253782E-2,1.1688125E-2,9.112857E0,8.489943E0,-5.72402E-2,-4.9346857E-2,-1.8715763E-2,-2.5482878E-2,8.657982E-3,-2.9625691E-2,-2.0505445E-2,-5.4217234E-2,-5.6437843E-2,7.6294784E-3,7.0556807E-3,-8.169196E-3,-4.5872312E-2,-9.236382E-3,2.8351613E-3,-2.3918586E-2,-6.793466E-3,-2.4643699E-2,4.0192446E-3,3.14193E-2,-1.6506853E-2,6.289519E-4,-2.8974062E-2,1.7137874E-2,-2.195998E-2,2.6488913E-2,-4.8085493E-3,2.9864931E-2,-4.2935543E-2,3.40868E-2,3.6641632E-3,3.1176765E-2,-1.378145E-2,3.1646844E-2,6.648714E-2,-3.4906894E-2,-1.0168049E-2,5.1696103E-2],"split_indices":[6,6,6,7,3,2,5,8,2,16,13,10,9,8,15,3,5,0,0,19,15,0,0,10,8,10,3,15,7,0,0,0,0,9,0,6,0,3,8,0,0,14,22,15,2,10,10,1,8,0,13,4,1,0,0,4,6,0,0,0,0,0,0,0,0,0,0,0,0,0,0,0,0,0,0,0,0,0,0,0,0,0,0,0,0,0,0,0,0,0,0,0,0,0,0],"split_type":[0,0,0,0,0,0,0,0,0,0,0,0,0,0,0,0,0,0,0,0,0,0,0,0,0,0,0,0,0,0,0,0,0,0,0,0,0,0,0,0,0,0,0,0,0,0,0,0,0,0,0,0,0,0,0,0,0,0,0,0,0,0,0,0,0,0,0,0,0,0,0,0,0,0,0,0,0,0,0,0,0,0,0,0,0,0,0,0,0,0,0,0,0,0,0],"sum_hessian":[2.758E3,7.1058356E2,2.0474164E3,1.4037193E2,5.702117E2,1.4109993E3,6.364172E2,1.369013E2,3.4706202E0,5.617036E2,8.508052E0,6.086678E2,8.023314E2,5.164893E2,1.1992786E2,